{"blocks.0.conv.weight": [[[-0.03931989520788193, -0.2219971865415573, 0.17439794540405273, 0.21145279705524445, -0.11940746009349823, 0.38793715834617615, 0.4950919449329376, 0.005585775710642338, -0.2381981760263443]], [[0.36522209644317627, 0.3586934804916382, -0.011125156655907631, 0.15817806124687195, 0.540244460105896, 0.14034605026245117, -1.0260826349258423, 0.16862739622592926, 0.6540486812591553]], [[0.2295650839805603, 0.23370954394340515, -0.25396794080734253, -0.07820482552051544, -0.27447351813316345, -0.1998194307088852, -0.46540072560310364, 0.05003960803151131, 0.26029133796691895]], [[-0.47658878564834595, 0.1776847243309021, -0.1253577470779419, 0.06120925769209862, -0.11004970222711563, -0.30559515953063965, 0.6379794478416443, 0.3177197575569153, 0.2076045423746109]], [[-0.10711934417486191, 0.032349009066820145, 0.1483079493045807, -0.14482054114341736, -0.07967007905244827, 0.4811629354953766, -0.5625650882720947, 0.228180393576622, 0.22779875993728638]], [[-0.07582781463861465, -0.15666714310646057, 0.2784084677696228, 0.4969833791255951, -0.0591246634721756, -0.20597241818904877, 1.3771412372589111, -0.3403133749961853, -0.10304997861385345]], [[0.13637004792690277, -0.2730845808982849, 0.3463498055934906, -0.028856759890913963, 0.11931633204221725, 0.36953115463256836, -0.46127867698669434, 0.16042549908161163, 0.1422930508852005]], [[-0.15456953644752502, -0.21284210681915283, -0.016651203855872154, -0.03204880282282829, 0.12077256292104721, -0.15094508230686188, -0.9275227189064026, 0.38871046900749207, 0.32729285955429077]], [[0.18882909417152405, 0.03238927945494652, -0.30026736855506897, 0.017805835232138634, 0.05398273095488548, 0.08721926808357239, -0.003049700753763318, -0.29211288690567017, -0.0015851473435759544]], [[-0.19311563670635223, -0.1103660985827446, -0.01646476238965988, -0.48281821608543396, 0.0008717554737813771, -0.4306719899177551, -0.259552925825119, -1.2395894527435303, -0.2856029272079468]], [[-0.0682579055428505, 0.03829433023929596, -0.051360055804252625, -0.15469281375408173, 0.1270999312400818, -0.37798064947128296, 1.0434216260910034, 0.32154354453086853, -0.28588613867759705]], [[-0.022592542693018913, 0.12610329687595367, -0.23069752752780914, 0.165992870926857, -0.23277297616004944, 0.15186937153339386, -0.3471201956272125, -0.06874029338359833, 0.2014721930027008]], [[-0.3387435972690582, -0.06699789315462112, -0.19041436910629272, -0.30813977122306824, -0.2424287348985672, -0.5572451949119568, 0.19526492059230804, -0.5646511912345886, -0.21410329639911652]], [[-0.3936660587787628, -0.1072365939617157, -0.3794008493423462, -0.40006348490715027, -0.23141004145145416, 0.06904734671115875, -0.5897210240364075, 0.1303073763847351, 0.27504613995552063]], [[-0.13037420809268951, 0.3507252633571625, -0.02296045608818531, -0.25179561972618103, -0.34491467475891113, -0.3256629407405853, -0.4730055034160614, 0.17865020036697388, 0.5689499974250793]], [[-0.021324168890714645, -0.0862540602684021, -0.35556894540786743, 0.06610337644815445, 0.3751560151576996, -0.718946099281311, 0.9039262533187866, -0.05014648661017418, -0.33489134907722473]], [[-0.3309818506240845, 0.040592778474092484, -0.04626651480793953, -0.07464795559644699, -0.22743935883045197, -0.10454001277685165, -0.6814531683921814, -0.15325380861759186, -0.1574353724718094]], [[0.28883060812950134, 0.3241056203842163, 0.2173301875591278, 0.19999122619628906, 0.3869035243988037, -0.13258394598960876, -0.37902215123176575, -0.06547233462333679, 0.12872689962387085]], [[-0.05998935177922249, 0.1304173618555069, 0.07287432998418808, -0.07801316678524017, 0.12806923687458038, 0.13760510087013245, 0.7476794719696045, 0.8242273926734924, 0.2600066065788269]], [[-0.25580960512161255, -0.0428670197725296, 0.1759483814239502, -0.22852355241775513, 0.028376219794154167, -0.30244553089141846, -0.43808165192604065, -0.2973262369632721, -0.1942504644393921]], [[-0.22255027294158936, -0.1347580850124359, -0.4278677999973297, 0.3218042254447937, 0.2819671034812927, -0.22643472254276276, 0.837628960609436, 0.15356257557868958, -0.06328617036342621]], [[0.10642413794994354, -0.43605294823646545, 0.08417767286300659, 0.00018701053340919316, -0.17842382192611694, 0.9268835186958313, 1.1744065284729004, -0.09767425060272217, -0.4041244685649872]], [[0.08230618387460709, -0.07706530392169952, 0.16281603276729584, 0.03602499142289162, 0.07386606186628342, 0.09861699491739273, 0.4766393005847931, 0.3165535032749176, 0.19245560467243195]], [[-0.09763006120920181, 0.012667358852922916, -0.1639489233493805, -0.022270720452070236, -0.3420288562774658, 0.2632450759410858, -0.2546590566635132, 0.21148589253425598, -0.09113937616348267]], [[-0.30068638920783997, -0.27456018328666687, -0.11670804023742676, 0.22297906875610352, -0.20169438421726227, 0.1304675191640854, -0.06965776532888412, 0.21121740341186523, 0.25078603625297546]], [[0.07909955829381943, 0.22920939326286316, -0.04933566227555275, 0.27872395515441895, -0.04309925436973572, 0.17985756695270538, 0.5629518628120422, 0.8331610560417175, 0.2616141140460968]], [[0.06424988061189651, 0.03047940321266651, -0.11847587674856186, -0.11554122716188431, -0.40855011343955994, -0.060187146067619324, 0.9354107975959778, 0.012850828468799591, -0.3412717580795288]], [[0.1655116230249405, 0.17636291682720184, -0.4317513704299927, 0.046885110437870026, 0.15148288011550903, -0.27476415038108826, -0.5209616422653198, 0.05202960968017578, 0.3386535346508026]], [[0.08655954897403717, 0.026918213814496994, -0.11065872013568878, 0.3199510872364044, -0.3738791048526764, 0.42966002225875854, 0.5508260130882263, -0.569438099861145, -0.744666337966919]], [[-0.10440875589847565, -0.08342089504003525, 0.48129743337631226, -0.016586678102612495, 0.005569953937083483, 0.0035806973464787006, -1.4915807247161865, 0.14215318858623505, 0.8708460330963135]], [[0.47714126110076904, 0.1546655148267746, 0.27832040190696716, 0.7260209918022156, 0.23309746384620667, 0.621740460395813, 1.0652931928634644, 0.47316527366638184, -0.4533892571926117]], [[0.19065450131893158, 0.13637793064117432, -0.25760310888290405, -0.060198888182640076, 0.15373432636260986, -0.08577290922403336, 0.08441971242427826, -0.2647835314273834, 0.33502522110939026]]], "blocks.0.conv.bias": [0.02948317490518093, 0.23257476091384888, 0.2202257663011551, -0.05089683085680008, -0.19314321875572205, -0.009487141855061054, 0.10894683003425598, -0.31240710616111755, -0.04129303991794586, -0.017671778798103333, 0.04724090173840523, -0.04313770681619644, 0.07218705862760544, 0.16181327402591705, 0.2027807980775833, 0.0863225907087326, 0.07336600869894028, 0.19042925536632538, 0.348947674036026, 0.17419302463531494, -0.19733472168445587, -0.19027528166770935, 0.007677960209548473, -0.30959463119506836, 0.1292497217655182, -0.068402960896492, -0.23522652685642242, 0.07471118122339249, -0.3393003046512604, -0.217771977186203, -0.10054829716682434, 0.08140107989311218], "blocks.0.film.adaptor.weight": [[0.29575175046920776, 0.6031174063682556], [0.3245910108089447, 0.2914043962955475], [0.4520922899246216, 0.15003392100334167], [0.23905684053897858, 0.16656409204006195], [0.22651822865009308, -0.21990084648132324], [-0.5465903282165527, -0.46086347103118896], [-0.5642470717430115, -0.48176106810569763], [0.18912900984287262, 0.03784753382205963], [0.5392014980316162, 0.0807691216468811], [0.7009460926055908, 0.6422073841094971], [-0.5557582974433899, -0.5142056941986084], [-0.6141327023506165, 0.4659059941768646], [0.4621664881706238, -0.3386704921722412], [0.11160308122634888, 0.15343795716762543], [-0.612246036529541, -0.0552351288497448], [0.3469831943511963, -0.43618759512901306], [0.07807442545890808, -0.5281112790107727], [0.5326571464538574, 0.22701573371887207], [0.4859876334667206, 0.25150802731513977], [0.23604831099510193, -0.15049205720424652], [0.592664361000061, 0.4700932204723358], [-0.2131248116493225, -0.4796631634235382], [0.23087410628795624, 0.3611798584461212], [0.6671831607818604, 0.3486713469028473], [-0.19978465139865875, -0.1753450483083725], [0.5517137050628662, 0.1597178429365158], [-0.11854711174964905, 0.20375850796699524], [0.4378603994846344, -0.31130555272102356], [-0.46618416905403137, 0.3725651502609253], [0.4263167977333069, 0.1884416788816452], [0.5519318580627441, 0.42764079570770264], [0.104720838367939, -0.38390180468559265], [0.6561447381973267, -0.47331491112709045], [0.17397822439670563, -0.2237834930419922], [-0.12509319186210632, -0.4004419147968292], [-0.555314838886261, -0.3383055031299591], [0.5674249529838562, -0.557424783706665], [0.6093648672103882, 0.29327672719955444], [0.016329290345311165, 0.4898906946182251], [-0.002881748601794243, -0.23242183029651642], [-0.6835193037986755, -0.6658100485801697], [0.4219052791595459, -0.6740054488182068], [-0.2051636129617691, -0.14131517708301544], [-0.48113206028938293, -0.4834153354167938], [-0.4077128469944, -0.00581769784912467], [0.10613242536783218, -0.24836234748363495], [-0.007954795844852924, -0.31689709424972534], [-0.11076891422271729, -0.09443961828947067], [-0.30578187108039856, 0.6943023800849915], [0.6195158362388611, 0.4424777626991272], [-0.23075290024280548, 0.5865554809570312], [-0.6044937968254089, 0.013717029243707657], [0.6598585247993469, 0.5510751008987427], [-0.2617242634296417, -0.6740506887435913], [0.3942350447177887, 0.3945605754852295], [-0.6210097074508667, 0.26170647144317627], [-0.5352020859718323, -0.19554384052753448], [-0.2797262668609619, 0.580774188041687], [0.24051377177238464, 0.384142130613327], [-0.6354657411575317, -0.5904147028923035], [0.27282893657684326, -0.6714992523193359], [0.1778763085603714, 0.16527144610881805], [0.4261450171470642, 0.14228928089141846], [0.6545541286468506, 0.02934381552040577]], "blocks.0.film.adaptor.bias": [0.7530401349067688, 0.703544557094574, -0.5635361075401306, -0.7874530553817749, 0.696735143661499, 0.8126619458198547, -0.6966007351875305, 0.7271031737327576, 0.00030604383209720254, -0.7956817150115967, 0.484145849943161, 0.5773009657859802, -0.8018807172775269, 0.6685285568237305, 0.4984358549118042, 0.07739078253507614, 0.3865205943584442, 0.6672967672348022, 0.7772037982940674, 0.10045703500509262, 0.2330331802368164, -0.42411068081855774, 0.5190485715866089, -0.1445094794034958, 0.0951765850186348, 1.0271592140197754, 0.7236650586128235, -0.13213853538036346, -0.7133747339248657, 0.656294047832489, 0.46769455075263977, 0.03907284513115883, 0.3789352476596832, -0.23070301115512848, 0.40460342168807983, -0.36667051911354065, 0.5143985748291016, 0.6694997549057007, 0.2348025143146515, 0.45582589507102966, -0.6320702433586121, 0.038769133388996124, 0.6127767562866211, 0.43165427446365356, 0.41164538264274597, 0.552362859249115, 0.008438734337687492, -0.4808649718761444, 0.34788498282432556, 0.49386066198349, -0.47262606024742126, 0.6887487173080444, 0.4700533151626587, -0.19077607989311218, 0.44609779119491577, 0.27373772859573364, 0.41803959012031555, 0.024261577054858208, 0.25990909337997437, -0.2992829382419586, -0.2740215063095093, 0.33921828866004944, -0.305963397026062, -0.20658497512340546], "blocks.0.act.weight": [0.23726950585842133], "blocks.0.res.weight": [[[-0.2524908185005188]], [[0.022303497418761253]], [[-0.18214020133018494]], [[-0.41673725843429565]], [[0.5268804430961609]], [[-0.5436282753944397]], [[-0.759702742099762]], [[0.12527920305728912]], [[-0.0077353366650640965]], [[0.43797567486763]], [[-0.29411381483078003]], [[0.9767870306968689]], [[0.6820592284202576]], [[0.8880557417869568]], [[-0.8586789965629578]], [[-0.2765854001045227]], [[-0.9400332570075989]], [[-0.5389602780342102]], [[-0.6809163093566895]], [[-0.05195600539445877]], [[-0.9309551119804382]], [[-0.7991484999656677]], [[0.5365736484527588]], [[-0.6873482465744019]], [[0.29269248247146606]], [[-0.26264500617980957]], [[0.8535667657852173]], [[0.20460297167301178]], [[-0.5720358490943909]], [[0.13005051016807556]], [[0.9007899761199951]], [[-0.2782009541988373]]], "blocks.1.conv.weight": [[[0.012695924378931522, 0.01657627895474434, 0.020165277644991875, -0.01335460040718317, -0.021818429231643677, -0.06065739691257477, -0.01135688554495573, -0.0293023269623518, -0.04298386350274086], [-0.04780595749616623, 0.009629444219172001, -0.007239308208227158, 0.009881516918540001, -0.011034253053367138, 0.021263033151626587, 0.027304282411932945, -0.045356880873441696, 0.01777447573840618], [-0.06382367014884949, -0.03086390718817711, -0.0024851320777088404, -0.06396345049142838, -0.012479395605623722, -0.027143048122525215, -0.023487713187932968, -0.02713339403271675, -0.04291100800037384], [-0.011327271349728107, -0.005744194611907005, -0.02199934981763363, 0.007094614673405886, -0.009599918499588966, -0.022679710760712624, -0.03630279004573822, 0.05056724324822426, 0.010219144634902477], [0.007865773513913155, 0.032041825354099274, 0.012208598665893078, 0.0373070053756237, 0.01761975884437561, 0.027843737974762917, 0.040583811700344086, -0.025021212175488472, -0.05930410325527191], [-0.038832392543554306, -0.028667686507105827, 0.013516326434910297, 0.038598161190748215, -0.017102301120758057, 0.022124504670500755, 0.034154921770095825, -0.01704487018287182, -0.0555490218102932], [0.04776468873023987, -0.020359208807349205, 0.05794980749487877, -0.03675023466348648, -0.01767593063414097, 0.07833629101514816, 0.00524092186242342, 0.054550789296627045, 0.044819679111242294], [0.03881380707025528, 0.015207231976091862, 0.02962392196059227, 0.014652070589363575, -0.011173238046467304, -6.707983993692324e-05, -0.06600510329008102, -0.005010469350963831, -0.035641610622406006], [-0.041067082434892654, -0.008781996555626392, -0.024179745465517044, 0.02957439236342907, -0.0435945950448513, 0.0021334115881472826, 0.045837171375751495, -0.010588523931801319, -0.036724627017974854], [0.01881030760705471, -0.10524900257587433, 0.009274651296436787, -0.019525760784745216, 0.08577508479356766, -0.02220945619046688, -0.014448998495936394, 0.0405215360224247, 0.1878233253955841], [-0.02496514655649662, -0.03122829832136631, 0.007520204409956932, -0.004712854046374559, -0.029881220310926437, -0.05622497946023941, 0.018333276733756065, -0.05374961718916893, -0.02783859148621559], [0.04301321133971214, -0.011775003746151924, 0.0012927071657031775, 0.0550592802464962, -0.006629332434386015, -0.015925979241728783, 0.030965840443968773, -0.06124008074402809, -0.05320894718170166], [0.04967578873038292, -0.047033488750457764, 0.025417132303118706, -0.03278464823961258, 0.0012181112542748451, -0.07134061306715012, 0.007492070086300373, 0.008679605089128017, -0.006110094022005796], [0.005937321111559868, -0.06464105099439621, 0.027889475226402283, 0.040690578520298004, 0.029631149023771286, 0.017440449446439743, 0.04450662434101105, -0.05402674898505211, 0.011265777051448822], [-0.054139651358127594, -0.06926992535591125, 0.000652997347060591, -0.0743836984038353, -0.018711989745497704, 0.07152829319238663, -0.09310867637395859, -0.03949737548828125, 0.08652538806200027], [0.017860395833849907, 0.024939915165305138, 0.050754841417074203, 0.060355477035045624, -0.01950918696820736, 0.025385867804288864, 0.06008686497807503, 0.06478797644376755, 0.055689048022031784], [0.002918143756687641, -0.047630272805690765, -0.028649069368839264, 0.039757560938596725, -0.058058563619852066, -0.02429819107055664, -0.06119119003415108, -0.03848694637417793, 0.008462603203952312], [-0.060746483504772186, -0.019592473283410072, -0.012497213669121265, -0.0064047775231301785, 0.026585999876260757, -0.04891044273972511, -0.02897247113287449, 0.029698051512241364, 0.02530776336789131], [0.0032860618084669113, 0.01370586920529604, 0.043413370847702026, 0.04731128364801407, 0.058240730315446854, 0.028180431574583054, -0.030369440093636513, -0.02776947245001793, -0.11077973246574402], [0.03695572167634964, -0.06042790412902832, 0.004874896723777056, -0.05880950018763542, 0.014169503003358841, -0.041630249470472336, -0.017278769984841347, 0.00360768660902977, -0.041096847504377365], [0.04601473733782768, 0.02091299183666706, -0.06879977881908417, 0.023495256900787354, -0.031618498265743256, -0.05391750484704971, 0.03514252230525017, -0.011793936602771282, -0.0449744388461113], [0.0003337234375067055, -0.004721468314528465, 0.03994247689843178, -0.01399523951113224, -0.03249938040971756, -0.008267994970083237, 0.0011390342842787504, -0.04840177670121193, 0.055004023015499115], [0.028752446174621582, 0.004925305489450693, -0.01963723823428154, -0.014962848275899887, -0.06292153149843216, -0.06149283051490784, -0.050684377551078796, -0.0038059407379478216, -0.056667208671569824], [-0.0118021871894598, 0.024354368448257446, -0.0662667453289032, -0.04595012590289116, 0.04373471066355705, -0.03838331252336502, -0.03701067343354225, -0.008563701063394547, -0.018684888258576393], [-0.02724403515458107, 0.004898310638964176, -0.052852269262075424, 0.0032143655698746443, -0.002772719832137227, 0.00684609217569232, -0.048453427851200104, 0.025122392922639847, -0.030387209728360176], [-0.1709367036819458, -0.2108357548713684, -0.10508251935243607, -0.11166125535964966, -0.07259931415319443, -0.025802450254559517, -0.022683318704366684, 0.007733519189059734, -0.5353012681007385], [-0.03711210936307907, 0.005688241682946682, -0.029888225719332695, -0.035353098064661026, -0.06703782081604004, 0.024993572384119034, 0.003024790668860078, 0.035619162023067474, -0.042304228991270065], [-0.01830674149096012, 0.013479557819664478, 0.056180085986852646, 0.030865401029586792, 0.06694380939006805, -0.012388307601213455, 0.0639280304312706, -0.0350944884121418, 0.012148810550570488], [0.031100384891033173, -0.06282739341259003, -0.05024159699678421, -0.03736622631549835, 0.04189316928386688, -0.05311325192451477, -0.07004596292972565, -0.08679312467575073, -0.07282141596078873], [0.003933746367692947, 0.03258194401860237, -0.046543385833501816, 0.04336555674672127, -0.02522173337638378, -0.05834859609603882, -0.0041519999504089355, 0.04622751474380493, -0.04963302239775658], [-0.009734713472425938, 0.008761097677052021, -0.014526762068271637, 0.010655212216079235, -0.03168769180774689, 0.037380918860435486, 0.037203673273324966, -0.03360293433070183, 0.01817760430276394], [-0.05183330550789833, 0.04114400967955589, -0.036181941628456116, 0.007648641709238291, 0.05690227448940277, -0.009801513515412807, -0.0130569227039814, 0.03713914379477501, 0.07266078144311905]], [[-0.03158336132764816, 0.026509836316108704, 0.045481208711862564, 0.008673536591231823, -0.03600459545850754, 0.015583477914333344, -0.056154120713472366, 0.02121897041797638, 0.08844386786222458], [-0.022576715797185898, -0.08424873650074005, 0.17726513743400574, 0.2608194649219513, 0.10565287619829178, 0.10504331439733505, -0.04920540750026703, -0.07406067848205566, -0.5755581855773926], [-0.014118957333266735, 0.04818854108452797, 0.062470827251672745, 0.045171450823545456, 0.008356500416994095, -0.025570953264832497, 0.0516742579638958, -0.007874254137277603, 0.07806862145662308], [-0.01174695510417223, 0.03895009681582451, 0.022847242653369904, 0.04464580491185188, 0.037368036806583405, 0.013856585137546062, 0.051101669669151306, 0.03805382177233696, 0.07682311534881592], [0.013473737984895706, -0.051327336579561234, 0.023106222972273827, -0.05507316812872887, -0.0398731455206871, 0.029611840844154358, -0.028575610369443893, -0.04605349898338318, 0.011791443452239037], [0.03919708728790283, 0.06905323266983032, -0.00856343749910593, 0.05154908075928688, -0.052656058222055435, 0.05484798550605774, 0.06082753464579582, 0.009256766177713871, 0.06391259282827377], [0.05538133159279823, 0.016051501035690308, -0.0006226634723134339, 0.10409987717866898, -0.038478415459394455, -0.02461770735681057, 0.10205608606338501, 0.0549706369638443, 0.05781075730919838], [0.00973025243729353, 0.051655422896146774, -0.01564715802669525, -0.00012073596008121967, 0.009043149650096893, 0.03674370422959328, 0.041584599763154984, -0.033565767109394073, -0.08558831363916397], [0.0030578896403312683, 0.04470399022102356, -0.01283377967774868, 0.01706811785697937, -0.024100493639707565, 0.04857463762164116, 0.0034872370306402445, -0.056094683706760406, -0.013466515578329563], [0.29620298743247986, 0.12663133442401886, 0.26408079266548157, 0.2461635172367096, 0.23470385372638702, 0.3077779710292816, 0.21396717429161072, 0.12393628805875778, -0.17891825735569], [0.03159874677658081, -0.04944860562682152, 0.048213887959718704, 0.014461931772530079, 0.058929234743118286, 0.059886444360017776, -0.020741522312164307, 0.06863084435462952, -0.0073095099069178104], [-0.0054024262353777885, 0.019785964861512184, -0.025006333366036415, -0.008069785311818123, -0.0029606132302433252, -0.016273749992251396, -0.05095032602548599, -0.0017262252513319254, 0.02355787344276905], [-0.04926926642656326, -0.020940463989973068, 0.06106623262166977, -0.03141959756612778, -0.041503146290779114, 0.031227724626660347, 0.036557089537382126, -0.053937625139951706, -0.014289886690676212], [-0.027923446148633957, 0.00020760258485097438, -0.0449097715318203, 0.0071752043440938, -0.027990764006972313, 0.03563525900244713, -0.050411514937877655, -0.014923647046089172, 0.01957041770219803], [-0.0016977241029962897, 0.07928989827632904, -0.0018134743440896273, 0.02469312958419323, -0.0012553122360259295, -0.00174815789796412, 0.02145630121231079, 0.03524022921919823, 0.14693674445152283], [0.01289206463843584, 0.023180965334177017, 0.05390607938170433, -0.00990336760878563, -0.025593634694814682, -0.00828182976692915, -0.019189581274986267, -0.0256256815046072, 0.014488698914647102], [0.07445590198040009, 0.01501325611025095, 0.029518505558371544, 0.045811887830495834, 0.0471799410879612, 0.020185239613056183, 0.043611541390419006, -0.048308249562978745, 0.0328948013484478], [0.028965139761567116, 0.038722965866327286, 0.057498302310705185, 0.053904980421066284, 0.01639099046587944, 0.009016663767397404, 0.028760600835084915, 0.009747086092829704, -0.03824174404144287], [-0.08631763607263565, -0.17800499498844147, -0.05351189151406288, -0.023737799376249313, -0.06642743200063705, 0.10400689393281937, -0.03236393630504608, 0.03247740864753723, 0.13244134187698364], [0.06445536017417908, -0.019919726997613907, -0.0037524369545280933, 0.0390092208981514, 0.005041356664150953, -0.03933628648519516, 0.0215432308614254, 0.047053076326847076, 0.019515948370099068], [0.06753706932067871, 0.013878622092306614, 0.05544707179069519, -0.018678124994039536, -0.04283083602786064, -0.06095052510499954, 0.04330681264400482, -0.01765275001525879, 0.0821852833032608], [-0.03861388936638832, 0.0423026978969574, 0.028510261327028275, 0.0592627190053463, -0.02268032915890217, -0.04237023741006851, 0.015231926925480366, -0.008265758864581585, 0.20930342376232147], [-0.05935407802462578, -0.00873772706836462, -0.033768847584724426, 0.039877235889434814, 0.04445189982652664, 0.04918830469250679, 0.037291619926691055, 0.06522330641746521, -0.017604423686861992], [0.01041204109787941, 0.059390824288129807, -0.007696754764765501, 0.06993822753429413, -0.015402992255985737, -0.05882611870765686, 0.01660757325589657, -0.04358496889472008, 0.022917402908205986], [0.042052023112773895, -0.050242114812135696, 0.0360756516456604, 0.032445017248392105, 0.03624004125595093, -0.044878486543893814, 0.014238438569009304, -0.0467362254858017, 0.02028816193342209], [0.1923840194940567, 0.1766534447669983, 0.35027292370796204, 0.19900375604629517, 0.29921650886535645, 0.28982287645339966, 0.0826181098818779, 0.07403703033924103, 0.09828237444162369], [-0.038634736090898514, -0.07290062308311462, 0.02713826484978199, -0.0612918846309185, 0.028105298057198524, 0.051765866577625275, -0.056117426604032516, -0.005709095858037472, -0.05032801628112793], [-0.027135008946061134, -0.04723336920142174, -0.0581863671541214, -0.07797249406576157, 0.025617310777306557, 0.005859216675162315, -0.07115337252616882, 0.04199047386646271, -0.041595615446567535], [0.013693120330572128, 0.16410896182060242, 0.032557882368564606, 0.03741847351193428, 0.06894253194332123, 0.05899012088775635, 0.057574961334466934, 0.014667498879134655, -0.05195118114352226], [0.040690261870622635, -0.03573264181613922, 0.0397869311273098, -0.06474743038415909, 0.04896034300327301, 0.025483114644885063, 0.032280709594488144, 0.014486920088529587, -0.004030030220746994], [-0.05205029994249344, -0.23588809370994568, -0.11354593187570572, 0.0056307194754481316, -0.0563950277864933, 0.01902759075164795, -0.06506826728582382, 0.01475229486823082, -0.07076815515756607], [0.07646308839321136, 0.06373361498117447, -0.05123321712017059, 0.046191662549972534, -0.03207206726074219, 0.021659692749381065, 0.002456788206472993, 0.004174909088760614, 0.04038101062178612]], [[-0.05780177190899849, 0.009588000364601612, -0.02979326993227005, -0.03346986696124077, -0.03333563357591629, 0.01733899489045143, 0.045108091086149216, -0.05069432407617569, -0.046880681067705154], [0.017349718138575554, 0.05446164309978485, -0.02081398293375969, 0.0310300774872303, -0.02611340954899788, -0.02058345638215542, 0.004142254590988159, 0.06308866292238235, 0.1620466560125351], [0.03218654915690422, 0.01923508197069168, -0.0017928499728441238, -0.0028164354152977467, 0.037976283580064774, 0.04751012101769447, 0.03489815443754196, -0.014344959519803524, -0.04300212487578392], [-0.03430316224694252, 0.042778439819812775, 0.054746970534324646, -0.039291441440582275, 0.0022052437998354435, -0.045493435114622116, -0.03398054838180542, 0.05238299071788788, 0.00932052917778492], [-0.02168184518814087, 0.025894563645124435, 0.023771559819579124, 0.02784653566777706, 0.002306639216840267, -0.03287651389837265, -0.00603487528860569, 0.03116123005747795, 0.020580707117915154], [0.02109649032354355, 0.045226722955703735, 0.0365493968129158, 0.052907805889844894, 0.03261580690741539, -0.055943381041288376, 0.0586966909468174, -0.020953966304659843, -0.00984335970133543], [0.01769091933965683, -0.007400939241051674, -0.054167188704013824, 0.041652996093034744, -0.044464461505413055, 0.007270172704011202, -0.010039878077805042, -0.05446887016296387, 0.04970446974039078], [-0.04041269049048424, -0.007901380769908428, 0.022597530856728554, 0.01350429467856884, -0.0023156243842095137, -0.019957285374403, 0.03700109198689461, -0.02573230303823948, 0.06376998871564865], [0.03220884129405022, -0.02453584596514702, 0.021419908851385117, -0.05091829225420952, -0.036989856511354446, -0.03769080713391304, 0.04328009858727455, 0.004423435311764479, -0.008394653908908367], [-0.03608573228120804, 0.020719680935144424, 0.061905618757009506, -0.09700373560190201, -0.08855307102203369, 0.019150780513882637, -0.02393423207104206, -0.04483255743980408, -0.40275710821151733], [0.011315720155835152, 0.03308916836977005, 0.05583915859460831, -0.0008211566018871963, -0.028738796710968018, -0.04816063866019249, 0.004669799003750086, 0.03184075281023979, 0.004606690723448992], [0.056264590471982956, 0.014477849937975407, -0.04903244599699974, -0.015806136652827263, -0.02780848927795887, -0.0009766835719347, 0.045685701072216034, 0.0520695224404335, 0.027514195069670677], [0.05975180119276047, 0.03742487356066704, -0.026936406269669533, -0.025936197489500046, -0.004100232385098934, -0.009825805202126503, -0.013892692513763905, 0.003981510177254677, 0.028751162812113762], [-0.004201014991849661, -0.05273462459445, 0.06030459329485893, -0.03610442578792572, -0.055369339883327484, -0.021802417933940887, 0.0291428305208683, 0.03953739255666733, -0.02436554990708828], [-0.03419572114944458, -0.029274582862854004, -0.029475631192326546, 0.02971155010163784, 0.03749995306134224, -0.014684273861348629, -0.00832070130854845, -0.012107240036129951, -0.054207637906074524], [-0.033511124551296234, -0.04441986605525017, 0.006525680888444185, 0.02716737799346447, -0.013859747909009457, -0.018720809370279312, 0.026068706065416336, -0.03288016468286514, 0.022410279139876366], [0.057024482637643814, -0.04717126861214638, 0.017377329990267754, -0.004494165536016226, 0.055893514305353165, 0.02858363837003708, 0.032256413251161575, -0.03555168956518173, -0.024381276220083237], [-0.02587355114519596, 0.032750025391578674, -0.0223238542675972, 0.004188461694866419, 0.041519518941640854, 0.0003724917187355459, 0.029033003374934196, 0.03453199937939644, 0.003527373308315873], [0.11617914587259293, 0.04340170696377754, 0.03544628247618675, 0.0779867172241211, 0.10363136976957321, 0.056896284222602844, -0.02689742110669613, 0.061426520347595215, 0.11936016380786896], [0.009402148425579071, 0.049082618206739426, 0.0377308689057827, -0.0032436165492981672, -0.030350282788276672, 0.059788089245557785, 0.01862850971519947, 0.0592995248734951, -0.03808452561497688], [-0.041023388504981995, -0.008695626631379128, -0.019464198499917984, 0.03227808699011803, 0.0595879852771759, 0.034321099519729614, -0.03702995553612709, 0.025440547615289688, -0.04911381006240845], [0.07889268547296524, 0.04891667142510414, 0.08016418665647507, 0.01286377664655447, 0.006697001866996288, 0.037831034511327744, 0.04062330722808838, 0.011500931344926357, -0.03633519634604454], [0.05310288444161415, -0.0019916174933314323, 0.03207040950655937, 0.02191019244492054, -0.013130667619407177, -0.026403915137052536, -0.027902575209736824, -0.022847848013043404, 0.03579830750823021], [-0.03341640159487724, 0.021809207275509834, -0.01219114102423191, 0.007970758713781834, -0.015882860869169235, -0.036703966557979584, -0.0018751687603071332, -0.0002136823459295556, 0.0407831072807312], [0.05281910300254822, -0.043346013873815536, -0.010405217297375202, 0.0031791068613529205, -0.04494902864098549, -0.02737916074693203, 0.015689030289649963, -0.0432264544069767, 0.03531089797616005], [0.015950219705700874, 0.08027420192956924, 0.07800725847482681, 0.05058235675096512, 0.1400015503168106, 0.06736649572849274, 0.04804573953151703, 0.06676403433084488, 0.5007804036140442], [0.033962659537792206, 0.03245865926146507, -0.012244591489434242, 0.009168022312223911, 0.0017431280575692654, -0.044484857469797134, 0.03963767737150192, 0.0039647407829761505, -0.05233440920710564], [-0.01980104111135006, 0.03479485586285591, -0.06082673743367195, 0.027676040306687355, 0.0003988977405242622, -0.06294587254524231, 0.05093836039304733, 0.04086937755346298, 0.0201945211738348], [-0.014118554070591927, -0.04114585742354393, 0.03948923572897911, -0.014788107015192509, -0.034406960010528564, -0.04342660680413246, -0.0335647314786911, 0.026203598827123642, 0.2711234390735626], [-0.03519263118505478, 0.03858519345521927, 0.05018094182014465, -0.04681328311562538, -0.023423131555318832, -0.017018001526594162, 0.020338203758001328, 0.02682000771164894, -0.07962539792060852], [-0.0014385604299604893, 0.004306665156036615, 0.01966877467930317, -0.024187827482819557, -0.04871390759944916, 0.05893222242593765, 0.0016862921183928847, -0.05847860500216484, -0.036936722695827484], [0.011027450673282146, 0.022157471626996994, 0.04082605987787247, 0.05101819336414337, 0.04844464734196663, -0.0151898805052042, -0.04520264267921448, -0.016746865585446358, -0.010119796730577946]], [[0.005157400853931904, 0.03382177650928497, -0.04970782622694969, -0.0062420121394097805, 0.04090464487671852, -0.008175492286682129, -0.027832500636577606, -0.01861080899834633, 0.03941431641578674], [0.03979048877954483, -0.053383905440568924, -0.011415181681513786, -0.04290582612156868, 0.10152064263820648, -0.05985912308096886, -0.06450913846492767, 0.007844312116503716, 0.07540660351514816], [0.013880524784326553, 0.014517911709845066, -0.04281296581029892, 0.019725607708096504, 0.01550175528973341, 0.04183337837457657, 0.017609240487217903, 0.0045911953784525394, -0.053967706859111786], [0.013140599243342876, 0.018116679042577744, -0.036871928721666336, -0.00859430804848671, 0.06086740642786026, -0.03246687352657318, 0.057251669466495514, -0.002824809867888689, 0.02763727307319641], [-0.037761390209198, 0.011764200404286385, -0.006052217446267605, 0.04396418109536171, 0.0013406079960986972, -0.0250822976231575, 0.034408312290906906, 0.017757592722773552, 0.049423664808273315], [-0.0035650464706122875, -0.028152761980891228, -0.018885351717472076, 0.03384055942296982, -0.02346889115869999, 0.027443865314126015, 0.004947124049067497, -0.0025282406713813543, -0.012112940661609173], [-0.016813822090625763, -0.0037989357952028513, -0.049885381013154984, -0.009290274232625961, -0.055217452347278595, -0.036835700273513794, -0.059706270694732666, -0.029655231162905693, -0.16361728310585022], [0.013293607160449028, -0.027522193267941475, 0.02492113597691059, -0.0023100879043340683, 0.009756539948284626, -0.009923082776367664, -0.00358092924579978, -0.02306244522333145, 0.015476115979254246], [-0.024028751999139786, 0.06548425555229187, 0.037671107798814774, 0.06364629417657852, 0.0018046990735456347, 0.039258044213056564, 0.04385902360081673, -0.021114036440849304, 0.004315836820751429], [-0.061326395720243454, -0.005537619814276695, -0.022133363410830498, 0.04727360978722572, -0.008791981264948845, 0.03275320678949356, -0.023340145125985146, 0.11110690236091614, -0.18748225271701813], [-0.021362219005823135, -0.013083375059068203, -0.036505527794361115, -0.04980616644024849, -0.058818597346544266, 0.029824955388903618, -0.04034227505326271, -0.004367664456367493, 0.009212386794388294], [-0.004652796778827906, -0.018772711977362633, -0.042356424033641815, -0.03872600942850113, -0.06289433687925339, -0.007415711414068937, 0.014986743219196796, 0.03690798953175545, -0.0025374176912009716], [-0.01690088026225567, 0.03892519325017929, 0.023403439670801163, -0.044617872685194016, 0.014379126019775867, 0.040476828813552856, 0.004675651900470257, 0.0029644782189279795, 0.04573439434170723], [-0.002951321192085743, 0.029066799208521843, 0.008871019817888737, -0.03908875584602356, -0.06675422936677933, -0.01756129041314125, 0.02360285446047783, -0.040152858942747116, 0.05529818683862686], [-0.046761948615312576, 0.028297346085309982, -0.04845244809985161, -0.04220103845000267, -0.0013391637476161122, -0.08988652378320694, 0.019108233973383904, -0.007131017278879881, -0.07082308828830719], [0.0579085610806942, -0.0021012872457504272, 0.04916495084762573, 0.04315770044922829, 0.006220574025064707, 0.06346713751554489, 0.020389683544635773, -0.03323055058717728, -0.06320202350616455], [-0.012008625082671642, -0.058214664459228516, -0.01749279908835888, -0.07846257835626602, -0.07355453819036484, -0.05980256199836731, -0.07249867171049118, -0.07489281892776489, 0.005027566105127335], [0.01939825527369976, -0.0050970097072422504, 0.029078736901283264, 0.004334287717938423, -0.03409430384635925, -0.06977305561304092, 0.01991637982428074, 0.04298891872167587, 0.024955661967396736], [-0.015761831775307655, 0.0073328460566699505, -0.04469657689332962, -0.029083071276545525, -0.011005988344550133, -0.11195014417171478, -0.06068649888038635, -0.016139646992087364, 0.041166771203279495], [0.020549964159727097, 0.03653498366475105, 0.003981286659836769, 0.03226831555366516, -0.0026406245306134224, -0.06586912274360657, -0.008729401975870132, 0.001953001250512898, -0.03099849820137024], [0.0348522923886776, -0.07334576547145844, 0.04304348677396774, -0.05344991385936737, -0.012035082094371319, -0.02158314548432827, 0.04228500649333, 0.03162509202957153, -0.02299252711236477], [-0.05658084526658058, -0.03993513435125351, 0.03404190391302109, -0.09436053782701492, -0.02742588520050049, -0.07999714463949203, 0.01679440401494503, -0.0844443067908287, -0.12820513546466827], [0.003638347378000617, 0.011401808820664883, -0.01652359776198864, 0.015809400007128716, 0.02776332013309002, -0.05419465899467468, -0.04259169474244118, -0.060034289956092834, 0.02949656918644905], [0.01308181881904602, -0.040964946150779724, -0.05647803843021393, -0.004222661256790161, -0.06534821540117264, -0.047609396278858185, 0.012739872559905052, -0.038277577608823776, -0.04319988936185837], [0.021004745736718178, -0.04502648860216141, -0.01835438422858715, -0.030569665133953094, -0.04911837726831436, -0.008550906553864479, 0.011911537498235703, -0.009285724721848965, 0.003076887922361493], [-0.34431952238082886, -0.2269243448972702, -0.24305623769760132, 0.012641224078834057, 0.008233558386564255, -0.0536319874227047, -0.04824329912662506, -0.037032440304756165, 0.6431108117103577], [0.05931267514824867, 0.028400558978319168, 0.027698297053575516, 0.0956476628780365, 0.04548506811261177, -0.04700825363397598, 0.05734637379646301, 0.00880841538310051, -0.03829963505268097], [-0.036501288414001465, 0.03412896394729614, -0.03732415661215782, -0.022850191220641136, 0.07045166194438934, 0.07077992707490921, 0.020388798788189888, -0.01718917489051819, 0.03675935044884682], [-0.021688029170036316, -0.012350932694971561, -0.03047599084675312, -0.08399784564971924, -0.06653422862291336, -0.057347800582647324, -0.08991221338510513, 0.024458616971969604, 0.10810165852308273], [0.028463970869779587, -0.02682872675359249, -0.0702698826789856, 0.007251854054629803, -0.003619671333581209, -0.05449259281158447, -0.05415444076061249, -0.059662532061338425, 0.09503761678934097], [-0.02188604697585106, -0.023385971784591675, 0.06426522135734558, 0.09534104913473129, 0.04562155529856682, 0.016280580312013626, 0.04429476708173752, 0.0029806997627019882, 0.13802595436573029], [-0.00720754312351346, 0.016248794272542, 0.0627555102109909, -0.038481950759887695, -0.006500008516013622, -0.0565074197947979, -0.0030263422522693872, -0.001228189212270081, 0.008012655191123486]], [[0.014428319409489632, 0.03193485736846924, 0.04269981384277344, -0.016517991200089455, 0.03997049853205681, 0.01807587221264839, 0.04915113374590874, 0.02620318904519081, -0.028575444594025612], [0.015247019939124584, 0.04604848846793175, -0.018561415374279022, 0.0008068695315159857, -0.05368208512663841, -0.055059973150491714, 0.044814325869083405, 0.054004866629838943, -0.010737758129835129], [0.03993226960301399, 0.04162224009633064, 0.0549495555460453, -0.058322641998529434, -0.03682107850909233, -0.031826697289943695, 0.011370646767318249, -0.0054344371892511845, 0.031666215509176254], [0.022316964343190193, 0.012003211304545403, -0.0313459113240242, 0.02387014403939247, -0.03684590384364128, -0.023688431829214096, -0.0016610731836408377, -0.02995244599878788, 0.02659527398645878], [0.01153294462710619, -0.04580998793244362, 0.03894295543432236, -0.005933460779488087, -0.012077035382390022, 0.03578570485115051, 0.02778349444270134, -0.05800807103514671, 0.06071676313877106], [0.018037142232060432, -0.03278012201189995, -0.03000178560614586, 0.007992211729288101, -0.03332995995879173, 0.01962473802268505, -0.029392419382929802, 0.026007572188973427, 0.040326692163944244], [0.05351078137755394, -0.03854682296514511, -0.05894702672958374, -0.039560142904520035, 0.023248277604579926, 0.01240734476596117, -0.04607672244310379, -0.0452800914645195, -0.02447187714278698], [0.03434229642152786, 0.016045184805989265, -0.026247916743159294, 0.03469904512166977, -0.013043134473264217, 0.03860544413328171, -0.012848570942878723, -0.0012854303931817412, -0.018338097259402275], [-0.058816127479076385, -0.01903274841606617, 0.02898304909467697, -0.012349972501397133, -0.034834254533052444, -0.02343955636024475, 0.011528152972459793, -0.05600272864103317, 0.04693913832306862], [0.014164361171424389, 0.007757740095257759, 0.06534981727600098, -0.017306016758084297, -0.025406038388609886, 0.07127956300973892, 0.022482087835669518, -0.03767342120409012, -0.17452603578567505], [-0.013494803570210934, -0.01683095283806324, 0.018366090953350067, 0.017489520832896233, -0.024798961356282234, -0.012161527760326862, 0.016308004036545753, 0.039116136729717255, 0.044286999851465225], [0.05479137971997261, 0.05117065832018852, -0.010096541605889797, 0.057588543742895126, -0.046606820076704025, -0.024363767355680466, 0.05640225112438202, 0.04684989154338837, 0.0066206613555550575], [-0.006453369278460741, 0.06105263903737068, -0.04623369127511978, -0.053690120577812195, -0.03454550355672836, -0.011696547269821167, -0.003550242865458131, -0.05731296166777611, 0.002870438387617469], [-0.025938324630260468, 0.04049864411354065, 0.025984853506088257, -0.011501740664243698, -0.041726674884557724, 0.00378055009059608, -0.023908937349915504, -0.056572187691926956, -0.026252184063196182], [-0.04222502559423447, 0.027826054021716118, 0.00863197073340416, 0.028876690194010735, -0.0030984191689640284, -0.03810933604836464, -0.012844384647905827, -0.008376440033316612, 0.008298301137983799], [0.03324763849377632, 0.00560762407258153, -0.028866872191429138, -0.044228751212358475, -0.028818299993872643, -0.021668724715709686, 0.031808480620384216, 0.029445379972457886, 0.03630948066711426], [0.005886908154934645, -0.00040073166019283235, -0.03682447597384453, 0.028779365122318268, -0.008854194544255733, 0.0013735751854255795, -0.032022587954998016, -8.939363760873675e-05, -0.0035756288561969995], [0.009260766208171844, 0.051388248801231384, 0.016761917620897293, -0.01751844957470894, -0.013126473873853683, -0.010057802312076092, -0.0031661735847592354, -0.013764739967882633, -0.055226750671863556], [0.02207903377711773, 0.005631919950246811, -0.04403645545244217, 0.04441871866583824, -0.023567266762256622, -0.05748883634805679, 0.002573199337348342, 0.027518177404999733, 0.08285586535930634], [0.017627866938710213, 0.002237180946394801, -0.052921850234270096, 0.006367414724081755, -0.006267053075134754, -0.01053739432245493, 0.04239877313375473, 0.04223079979419708, 0.05343770980834961], [-0.006117458920925856, -0.013023528270423412, -0.018744219094514847, 0.025986632332205772, 0.033185239881277084, -0.048709943890571594, -0.019630027934908867, -0.025637006387114525, -0.06012468785047531], [0.033218614757061005, -0.02140495926141739, -0.05637729912996292, 0.023819446563720703, -0.024368487298488617, 0.025984477251768112, 0.04591170325875282, -0.0012460489524528384, 0.023311840370297432], [-0.02952287718653679, -0.02808791771531105, 0.014465116895735264, 0.016278741881251335, 0.028717879205942154, -0.0505676344037056, -0.002734837122261524, -0.013778887689113617, -0.006009491626173258], [0.013978058472275734, -0.04375573247671127, -0.012989262118935585, 0.047304462641477585, 0.017851557582616806, 0.001155454316176474, -0.04149700328707695, 0.03426424786448479, 0.0525665283203125], [-0.049191392958164215, 0.024715077131986618, 0.0538322888314724, -0.041566841304302216, -0.024529600515961647, 0.019897982478141785, 0.0074028209783136845, -0.024109650403261185, 0.04925573244690895], [0.004538506269454956, 0.08066665381193161, 0.0049765463918447495, 0.004722794983536005, 0.05913594737648964, 0.05195123702287674, -0.01385008916258812, -0.026769278571009636, 0.3347766697406769], [0.03205938637256622, 0.03188303858041763, -0.03270816057920456, 0.03318920359015465, 0.029268598183989525, 0.023266399279236794, -0.057246383279561996, -0.022002795711159706, -0.03558262437582016], [0.03400523588061333, 0.017945582047104836, -0.02616511844098568, -0.028156260028481483, 0.02535437047481537, -0.0038666524924337864, -0.008701704442501068, -0.04618913680315018, -0.047660090029239655], [0.04630366340279579, 0.0025008406955748796, -0.021870901808142662, 0.016470598056912422, 0.018637999892234802, 0.018198398873209953, -0.011668527498841286, 0.012793687172234058, 0.00046203340752981603], [0.00831142719835043, -0.038627758622169495, -0.004877325147390366, -0.027721289545297623, -0.04346949979662895, -0.02298501506447792, -0.042119015008211136, 0.011740192770957947, -0.0051631140522658825], [-0.03963235765695572, -0.002995713846758008, 0.04153101518750191, 0.021972432732582092, 0.03749736025929451, -0.04135514795780182, 0.04915499687194824, 0.011436396278440952, 0.009096323512494564], [-0.0482042096555233, 0.034704018384218216, -0.05868874117732048, -0.010858600027859211, 0.002950005466118455, 0.005994163453578949, 0.0025746456813067198, -0.04073772951960564, -0.014862983487546444]], [[0.003322149394080043, -0.0598357655107975, 0.028950436040759087, -0.010153813287615776, -0.01915142498910427, -0.0030484525486826897, -0.0021911279764026403, -0.006957971025258303, 0.05257335677742958], [-0.057511601597070694, -0.1223590299487114, -0.11469460278749466, -0.04517407715320587, -0.08967997878789902, -0.17612990736961365, 0.031230511143803596, 0.08640123158693314, -0.6322411298751831], [-0.01599876955151558, -0.050517722964286804, 0.00858196523040533, -0.05116340145468712, 0.02206413820385933, -0.02661488577723503, -0.047845110297203064, -0.015595247969031334, 0.07842934131622314], [0.0946531668305397, 0.06681638956069946, 0.025663623586297035, 0.003132195444777608, 0.03605150058865547, 0.0056703719310462475, 0.07732263207435608, 0.05556140094995499, -0.1146419495344162], [-0.013845381326973438, 0.029692554846405983, -0.05427936092019081, -0.05852249637246132, 0.037508558481931686, 0.038720231503248215, -0.015938911586999893, 0.033563800156116486, -0.023704759776592255], [0.01929665170609951, 0.024006035178899765, 0.05335069075226784, -0.04231125861406326, 0.024531973525881767, -0.04272081330418587, 0.056330304592847824, -0.04777955263853073, 0.05824064463376999], [0.03340649977326393, 0.08210057020187378, 0.05329915136098862, -0.003899914911016822, 0.033138301223516464, 0.004898295272141695, 0.029107175767421722, -0.02779598906636238, 0.07133667171001434], [0.06163930520415306, 0.018671484664082527, 0.028120115399360657, 0.007024809252470732, 0.02101665735244751, 0.036508459597826004, 0.03714635968208313, 0.0610833615064621, -0.15976451337337494], [-0.04090633615851402, -0.00548281567171216, -0.013291019015014172, -0.025896191596984863, -0.02162381075322628, -0.030410440638661385, 0.05476425215601921, 0.025000611320137978, 0.0018334982451051474], [-0.127737358212471, -0.21699531376361847, -0.290425568819046, -0.23643016815185547, -0.1812293380498886, -0.05939054116606712, 0.06461413204669952, 0.027449725195765495, 0.3677092492580414], [0.053203411400318146, -0.01834217458963394, 0.050534993410110474, -0.043310441076755524, -0.028990861028432846, 0.014833477325737476, 0.05825153738260269, 0.030246587470173836, 0.03279855474829674], [0.029057735577225685, 0.025289559736847878, -0.021638216450810432, 0.014377249404788017, -0.06220003217458725, -0.05843475088477135, 0.0032422677613794804, -0.006853502709418535, 0.039683256298303604], [-0.02383960410952568, -0.008716295473277569, -0.002779755275696516, -0.08682197332382202, -0.04571034386754036, -0.084290511906147, -0.001961988629773259, -0.047222718596458435, 0.056943465024232864], [-0.0034865038469433784, -0.007541305851191282, -0.01872500777244568, 0.06130779907107353, -0.006500910501927137, -0.03788038343191147, -0.01745659112930298, -0.006085639353841543, 0.04101962596178055], [0.0010198932141065598, 0.07226637005805969, 0.10399935394525528, 0.11175915598869324, 0.1412532776594162, -0.0026597217656672, 0.015866680070757866, 0.013108015060424805, -0.26739031076431274], [0.02647894248366356, 0.06705306470394135, 0.028731081634759903, 0.007606899831444025, -0.0075219725258648396, 0.05442187935113907, -0.0400419756770134, 0.029713468626141548, 0.012118678539991379], [0.006412918213754892, -0.0008293428109027445, -0.02189919725060463, -0.026915566995739937, 0.02781907096505165, 0.025273067876696587, -0.0033355848863720894, 0.008860306814312935, -0.09188329428434372], [-0.0060073561035096645, -0.008223921991884708, -0.06538014113903046, -0.022159844636917114, -0.046282242983579636, -0.021005962044000626, 0.0064039272256195545, -0.03567240387201309, -0.061975251883268356], [0.08979752659797668, -0.014340892434120178, -0.03922772780060768, 0.10877268016338348, 0.0021837176755070686, 0.1640712022781372, 0.2548641562461853, 0.1741448938846588, 0.7868688702583313], [0.04107179492712021, -0.011488574557006359, -0.04630424454808235, 0.041965778917074203, -0.0257153008133173, 0.04892491549253464, -0.040740638971328735, -0.05491050332784653, -0.009223892353475094], [0.04487407207489014, 0.012523867189884186, -0.048112958669662476, -0.006321629974991083, 0.01756831631064415, 0.06057589873671532, -0.02459249272942543, 0.03259286284446716, -0.0045723156072199345], [0.18598397076129913, 0.2453961819410324, 0.25870755314826965, 0.1374630630016327, 0.0791545957326889, 0.029313189908862114, 0.07716567814350128, 0.0039468626491725445, -0.26280638575553894], [-0.005654257256537676, 0.037865497171878815, 0.04935711994767189, -0.06239016354084015, -0.01660493016242981, -0.04874596744775772, 0.0067170788533985615, 0.017093906179070473, 0.05921882763504982], [0.052967533469200134, 0.05837617069482803, 0.00017537862004246563, 0.04085817188024521, 0.03522578254342079, -0.01716325432062149, 0.06734970211982727, -0.036509230732917786, -0.007436566054821014], [-0.03622853383421898, 0.04909674823284149, -0.004299086984246969, -0.053383972495794296, 0.022936278954148293, 0.01877925544977188, 0.023584475740790367, 0.06129811704158783, 0.046646930277347565], [0.309171587228775, 0.1162153109908104, -0.008333820849657059, 0.12152557820081711, 0.01893598958849907, 0.2907906174659729, 0.3544996380805969, 0.2552412152290344, 0.8975998759269714], [-0.018603980541229248, -0.010670551098883152, -0.010473242029547691, -0.013187980279326439, -0.0020334667060524225, 0.0013201986439526081, -0.0008454107446596026, -0.038537535816431046, 0.22945265471935272], [-0.036468591541051865, -0.05790016055107117, -0.0027737512718886137, -0.05257376283407211, -0.08167164772748947, 0.017418155446648598, 0.03104606829583645, 0.04192620888352394, 0.09396366029977798], [0.13706327974796295, 0.186298668384552, 0.1385420560836792, 0.12701855599880219, 0.11227495968341827, 0.14628690481185913, 0.22273406386375427, 0.19880619645118713, -0.2503614127635956], [0.015329982154071331, -0.03744714707136154, 0.04275815188884735, 0.026186633855104446, -0.05663963034749031, 0.01456683874130249, -0.012633992359042168, 0.0020123410504311323, -0.2056189477443695], [-0.0588362030684948, -0.041597262024879456, -0.05647044628858566, -0.009265154600143433, -0.12531065940856934, 0.005219775717705488, 0.008996897377073765, -0.05981064587831497, 0.26244625449180603], [0.0442938357591629, 0.09648741781711578, -0.005743198096752167, -0.01421345118433237, 0.08585581928491592, 0.029321866109967232, 0.02853662334382534, 0.041920099407434464, -0.05372951924800873]], [[-0.04352499917149544, -0.026382872834801674, 0.06182856485247612, -0.03629578277468681, -0.05619934946298599, -0.03500876948237419, 0.047746691852808, -0.017212072387337685, -0.11491462588310242], [-0.014873513020575047, -0.0008889304590411484, -0.032556671649217606, -0.1001199334859848, 0.015890121459960938, -0.03886276111006737, 0.03945797309279442, 0.08642826229333878, 0.5965465903282166], [0.03221262991428375, 0.05043339356780052, -0.034306641668081284, 0.056388985365629196, 0.01721641607582569, 8.217093272833154e-05, -0.056876279413700104, -0.010601249523460865, -0.08333437889814377], [0.01214882917702198, 0.045252613723278046, -0.015316905453801155, -0.015255487523972988, -0.015529178082942963, 0.03283422067761421, 0.03707216680049896, -0.034367308020591736, 0.10452103614807129], [0.047422051429748535, -0.014183394610881805, 0.023086925968527794, 0.05433976650238037, -0.04409918561577797, -0.04543641582131386, 0.04240727052092552, -0.029282329604029655, -0.04728483036160469], [0.007940464653074741, 0.0002609987568575889, -0.03404701501131058, -0.006801898125559092, -0.0493600070476532, 0.021142518147826195, 0.03654234856367111, 0.028831936419010162, -0.029735570773482323], [0.03479316830635071, -0.011987254023551941, 0.07218390703201294, -0.011599045246839523, 0.05435657873749733, 0.025538481771945953, -0.020026812329888344, 0.03870835900306702, 0.06418372690677643], [-0.04713636264204979, 0.045395687222480774, 0.039455439895391464, -0.05200083926320076, 0.013993862085044384, 0.025993000715970993, 0.03697691112756729, 0.0786430612206459, 0.11736477166414261], [-0.010711933486163616, 0.05042207986116409, 0.016701390966773033, -0.010423606261610985, 0.02074282243847847, 0.010026846081018448, 0.03841589018702507, -0.017664343118667603, 0.024365214630961418], [0.004284109454602003, 0.03549492359161377, 0.04978060722351074, -0.079867422580719, 0.11821920424699783, 0.07930447161197662, 0.14934171736240387, 0.19182319939136505, 0.06557128578424454], [-0.05249224975705147, 0.0035595681983977556, 0.008392678573727608, 0.01506561879068613, -0.008677870035171509, 0.033450897783041, -0.022566068917512894, -0.05197989568114281, -0.03700719401240349], [-0.00951126217842102, 0.00023634228273294866, -0.023696383461356163, -0.02812015637755394, -0.03679012134671211, 0.021502340212464333, 0.03330786153674126, 0.00046654418110847473, -0.044611044228076935], [-0.047974877059459686, 0.011306524276733398, -0.0018742771353572607, 0.019707415252923965, -0.028197551146149635, 0.005618447437882423, -0.021283552050590515, 0.03795741870999336, -0.0922800749540329], [0.018359381705522537, 0.026391759514808655, -0.05581952631473541, -0.00103659275919199, -0.05094919726252556, -0.013106868602335453, -0.04995744302868843, -0.048437587916851044, -0.018818147480487823], [-0.013381289318203926, 0.026489464566111565, 0.019154546782374382, 0.04627073183655739, 0.05845749005675316, -0.017798444256186485, 0.057751718908548355, -0.004367196466773748, 0.29243263602256775], [0.016118086874485016, 0.04231484606862068, -0.012336757965385914, 0.048056378960609436, -0.04326961934566498, 0.025030085816979408, 0.02185017615556717, 0.04852912202477455, 0.10695522278547287], [-0.04344789683818817, 0.042738135904073715, -0.0472031831741333, 0.022558026015758514, 0.004004772286862135, 0.03934718668460846, 0.02520509995520115, 0.05257479101419449, 0.1434638798236847], [0.0542282797396183, 0.017282726243138313, 0.032828427851200104, 0.011053966358304024, -0.020486226305365562, 0.023450814187526703, 0.03845090791583061, 0.022468848153948784, 0.06735974550247192], [-0.04733007028698921, 0.01582113280892372, -0.07636580616235733, -0.07001840323209763, -0.0944773256778717, -0.09454181045293808, -0.06772901117801666, -0.053022440522909164, -0.430425763130188], [0.04897592216730118, -0.015525687485933304, -0.017263565212488174, -0.04515073448419571, 0.024344610050320625, -0.02671876735985279, -0.009861087426543236, -0.003547292435541749, 0.06604446470737457], [0.05128621682524681, 0.009254485368728638, -0.02169582061469555, 0.04696419835090637, 0.008777868002653122, 0.03185564652085304, 0.010288669727742672, 0.02970343828201294, 0.08126107603311539], [-0.05811616778373718, -0.038670752197504044, -0.03760262578725815, 0.056385383009910583, -0.03425025939941406, -0.037241339683532715, -0.040916141122579575, -0.08024325966835022, 0.3374287188053131], [0.03372332453727722, -0.05266286060214043, -0.04561622440814972, -0.012857773341238499, 0.02553572878241539, -0.06747051328420639, -0.029222458600997925, 0.022641658782958984, -0.06765849888324738], [0.003969792742282152, -0.05205024033784866, 0.02635616809129715, 0.006937104742974043, 0.0263177752494812, -0.03149595111608505, -0.04168090969324112, 0.07096526771783829, 0.09778648614883423], [-0.024315157905220985, -0.03712064027786255, -0.016212474554777145, -0.005454775411635637, -0.02602364309132099, 0.03102332353591919, 0.04634679853916168, -0.007926230318844318, -0.04054247960448265], [-0.05466349050402641, -0.010836637578904629, 0.03160850331187248, 0.17065595090389252, -0.048849400132894516, 0.06284187734127045, 0.04740043729543686, 0.027596918866038322, -0.6954836249351501], [-0.05362636595964432, -0.017458215355873108, -0.00878217350691557, 0.02113095112144947, 0.03305055946111679, 0.016079537570476532, 0.014577191323041916, 0.07639788836240768, -0.32445499300956726], [-0.03089914843440056, -0.02009977214038372, -0.027410026639699936, 0.02986113354563713, 0.0208166241645813, -0.0026651283260434866, -0.06672493368387222, -0.08083482831716537, -0.14461132884025574], [0.10607380419969559, -0.07280407845973969, -0.06482355296611786, 0.03273986652493477, 0.047648634761571884, 0.030655721202492714, 0.029313277453184128, -0.02294924482703209, 0.30542057752609253], [-0.055991072207689285, 0.012876655906438828, 0.04122181981801987, -0.0065803504548966885, -0.030871732160449028, 0.008657158352434635, -0.03548981249332428, 0.04939332231879234, 0.27223822474479675], [-0.023824751377105713, -0.0308845192193985, 0.0532604455947876, 0.028474515303969383, -0.08493822067975998, -0.029585400596261024, -0.06655929982662201, -0.03800399973988533, -0.135061576962471], [-0.06006826087832451, 0.024859076365828514, 0.05989890545606613, -0.01659482903778553, -0.034866925328969955, 0.06295129656791687, -0.001257211435586214, -0.02302171289920807, 0.08921204507350922]], [[0.05226924270391464, -0.015217087231576443, -0.02351783961057663, -0.01538101863116026, 0.003844175022095442, -0.01286105252802372, -0.018834087997674942, 0.08204259723424911, 0.07552957534790039], [0.09177128970623016, -0.02939850091934204, 0.11483697593212128, 0.07308781147003174, 0.012965989299118519, -0.01807229220867157, -0.0884959027171135, -0.1134684681892395, -0.5021792650222778], [0.056460052728652954, 0.06939791887998581, 0.04196654260158539, 0.04523143544793129, -0.020231766626238823, 0.0776948630809784, -0.001246327650733292, 0.044942550361156464, 0.02255854569375515], [0.0077372402884066105, 0.023825181648135185, -0.002295491751283407, 0.01309659332036972, -0.08081100136041641, 0.01436622254550457, -0.01259225606918335, 0.02193688042461872, -0.03241036832332611], [0.052477020770311356, 0.03145243600010872, 0.02465193346142769, 0.06774894148111343, 0.06751072406768799, 0.007299305405467749, 0.050892915576696396, -0.0026859429199248552, 0.013427414000034332], [0.015526716597378254, 0.07642889767885208, -0.012339862063527107, 0.04571690782904625, 3.450868098298088e-05, 0.03565293923020363, 0.04639890789985657, 0.02295675501227379, 0.04693947359919548], [-0.023337502032518387, 0.06085976958274841, 0.05627801641821861, 0.06081720069050789, 0.009734265506267548, -0.011923357844352722, 0.0036968167405575514, 0.08318027853965759, 0.04071327671408653], [0.06979351490736008, -0.008520455099642277, -0.010876806452870369, 0.02176046185195446, 0.024566559121012688, 0.08856458961963654, -0.003098316490650177, -0.01156542170792818, -0.05790014564990997], [0.004630182404071093, -0.06764198839664459, -0.05962316691875458, -0.010784335434436798, -0.04330846294760704, -0.059346433728933334, 0.01352878101170063, -0.07906398922204971, -0.05047319829463959], [0.050863783806562424, 0.10387733578681946, 0.02158799022436142, 0.10206766426563263, 0.07303983718156815, 0.019678642973303795, -0.041904497891664505, 0.02034013345837593, -0.18130230903625488], [0.05259236320853233, 0.07342220842838287, 0.06600305438041687, 0.013651794753968716, 0.018597466871142387, -0.01633058860898018, 0.04629943519830704, 0.02020438201725483, 0.05108227580785751], [-0.02602742798626423, 0.08651681244373322, 0.006911591626703739, -0.028318891301751137, -0.010318283922970295, 0.07274335622787476, 0.02101455070078373, 0.0474819652736187, 0.013728147372603416], [0.03784502297639847, 0.09571962058544159, 0.09070304781198502, 0.07865941524505615, 0.042067721486091614, 0.011761055327951908, 0.007579822093248367, 0.06247688829898834, 0.04400426894426346], [0.06521125137805939, -0.011337671428918839, 0.0546996183693409, 0.05973103269934654, 0.02906101569533348, 0.025455020368099213, 0.048172999173402786, 0.022275326773524284, -0.022603658959269524], [0.06857915967702866, 0.01786949299275875, 0.017032623291015625, -0.013806271366775036, -0.04315292462706566, 0.040452100336551666, 0.06833595782518387, 0.1396636813879013, 0.10391882061958313], [-0.004266294185072184, -0.08940287679433823, -0.043279651552438736, 0.011022020131349564, 0.01589042693376541, -0.04477507993578911, -0.018894586712121964, -0.05951796844601631, 0.018982945010066032], [-0.02081082947552204, 0.050400253385305405, 0.05102379992604256, 0.013675207272171974, 0.01339230127632618, -0.010887157171964645, 0.09335193037986755, 0.017182860523462296, 0.008766143582761288], [0.06708427518606186, 0.0852733850479126, -0.005670324899256229, -0.022408869117498398, -0.02107037976384163, 0.07175997644662857, -0.005524951033294201, 0.021361535415053368, -0.018333863466978073], [-0.029280999675393105, -0.13092517852783203, -0.11457448452711105, 0.03221292421221733, -0.12215150147676468, -0.07892243564128876, -0.022296646609902382, -0.07108437269926071, 0.12734729051589966], [-0.007369214203208685, 0.08619401603937149, 0.07053907960653305, 0.019800370559096336, 0.06937073171138763, 0.03791472688317299, 0.0573885403573513, -0.026416264474391937, 0.040996767580509186], [-0.032441895455121994, -0.019907839596271515, -0.025535549968481064, -0.019345836713910103, 0.07481657713651657, 0.06826971471309662, -0.012630616314709187, 0.0591450110077858, -0.0011133896186947823], [-0.04151347279548645, -0.035340968519449234, -0.07286003977060318, -0.08021391928195953, 0.010858424007892609, 0.05351468175649643, 0.08305983245372772, 0.02991400472819805, 0.02267838828265667], [-0.01872316561639309, 0.08310604095458984, 0.08041504770517349, 0.013621554709970951, 0.03188933804631233, 0.014076841995120049, -0.020797863602638245, 0.07494249194860458, 0.0499667152762413], [0.07531105726957321, 0.0784633457660675, 0.010538292117416859, 0.07352928817272186, -0.00023183642770163715, 0.05197805166244507, 0.0026547641027718782, -0.017028789967298508, -0.012585589662194252], [0.08963672816753387, 0.05994021147489548, 0.025636278092861176, -0.0022573438473045826, 0.06592292338609695, 0.03836292028427124, 0.0719434842467308, 0.06282214820384979, 0.026489531621336937], [-0.08564499020576477, -0.05227296054363251, -0.0873013362288475, 0.04433933272957802, -0.07482986897230148, -0.10069306939840317, -0.17330527305603027, -0.3546077609062195, 0.5601348876953125], [0.08561273664236069, 0.030783377587795258, -0.03023100458085537, -0.022631676867604256, 0.0681687593460083, 0.04156547412276268, 0.023904094472527504, 0.045790769159793854, 0.06529225409030914], [-0.05384761095046997, -0.002513747662305832, -0.07771983742713928, -0.0048979208804667, 0.0021585554350167513, -0.022149352356791496, -0.06711564213037491, -0.0698142796754837, -0.03158615902066231], [-0.11804556846618652, -0.032776251435279846, -0.09289728105068207, 0.014117400161921978, -0.030272943899035454, 0.007660845760256052, 0.06565002351999283, 0.0461508072912693, 0.003339469898492098], [0.059126392006874084, -0.02222514897584915, -0.020811064168810844, 0.0371134914457798, 0.03632592409849167, -0.01387468446046114, -0.015199183486402035, -0.02720940113067627, -0.031620025634765625], [0.003917371854186058, 0.003428103169426322, -0.008059915155172348, -0.03421317785978317, -0.005880938842892647, 0.02068435773253441, -0.051766958087682724, -0.016377221792936325, -0.08300044387578964], [-0.03228267282247543, -0.0905335322022438, -0.07312211394309998, -0.03807481378316879, -0.005663247313350439, -0.08146627992391586, -0.028399694710969925, 0.0010086997644975781, 0.0406903475522995]], [[-0.004256583750247955, 0.01610485091805458, 0.041435834020376205, -0.04351718723773956, 0.008593047969043255, -0.013570962473750114, 0.014689944684505463, -0.01743428036570549, 0.026281209662556648], [-0.0947510376572609, -0.11999528110027313, -0.2471195012331009, -0.11720350384712219, -0.257409930229187, -0.17940634489059448, -0.2193966954946518, -0.1736234724521637, -0.24884362518787384], [-0.01600199192762375, 0.022432122379541397, 0.06642808765172958, -0.028080683201551437, 0.05385607108473778, -0.05115089565515518, 0.06057509407401085, -0.033743806183338165, 0.036821793764829636], [-0.03023812361061573, -0.05313006415963173, 0.07447215169668198, 0.013315092772245407, -0.01095016673207283, -0.030994899570941925, 0.05583520978689194, -0.007570517249405384, -0.0319749191403389], [0.057822443544864655, 0.06024620682001114, -0.03444617986679077, -0.04891543835401535, 0.044998764991760254, 0.00921640731394291, -0.031580448150634766, -0.05218954011797905, -0.11346311122179031], [0.027150455862283707, -0.048033349215984344, 0.05797330290079117, -0.02694421261548996, 0.06436240673065186, 0.0500175766646862, 0.032514650374650955, 0.06024759262800217, 0.040603842586278915], [-0.016253706067800522, 0.057812225073575974, 0.06392531841993332, 0.07135773450136185, 0.08234066516160965, 0.07718170434236526, 0.012462600134313107, 0.031604114919900894, 0.17110635340213776], [0.027472028508782387, 0.08070755749940872, -0.010220654308795929, 0.026172127574682236, -0.03129742294549942, -0.04263213276863098, 0.06305395811796188, -0.015773719176650047, -0.10938319563865662], [-0.04286777600646019, 0.011855632066726685, 0.0061041065491735935, -0.0034801613073796034, 0.035792771726846695, 0.000988099491223693, 0.04156982898712158, -0.048574648797512054, -0.05623502656817436], [-0.21499879658222198, -0.22891798615455627, -0.26249364018440247, -0.2873918414115906, -0.20702719688415527, -0.2578522861003876, -0.24064800143241882, -0.2168993502855301, 0.24790546298027039], [0.07074678689241409, -0.029910370707511902, 0.022801335901021957, 0.035562608391046524, 0.03370035067200661, 0.05544428899884224, -0.0370144285261631, 0.00976012833416462, 0.1069064512848854], [-0.03527529165148735, -0.03084898740053177, 0.017369618639349937, 0.044596921652555466, 0.03930079936981201, -0.03946366533637047, -0.002965533407405019, -0.05232247710227966, -0.0603441521525383], [0.04869192838668823, 0.02422800473868847, -0.08556371927261353, 0.007513242773711681, -0.08473620563745499, -0.09885746985673904, -0.001680662389844656, -0.06884264945983887, -0.08764377236366272], [-0.027905110269784927, 0.04740746691823006, 0.056508734822273254, 0.00314426701515913, 0.014419144950807095, -0.014553037472069263, 0.04362213611602783, 0.030014030635356903, 0.06246647238731384], [-0.0683446079492569, 0.038993556052446365, 0.10495232790708542, 0.13579297065734863, 0.11854702234268188, 0.03316076099872589, 0.02095508761703968, 0.028804952278733253, -0.10153041779994965], [-0.02500227838754654, -0.03477572649717331, -0.04738829657435417, -0.03878013417124748, -0.05558396503329277, 0.03222498297691345, 0.048756055533885956, 0.02106143720448017, 0.044090636074543], [-0.003843568963930011, 0.004325767979025841, 0.07459601759910583, 0.016371307894587517, 0.0020647908095270395, 0.07349295169115067, 0.030530182644724846, -0.005174999590963125, 0.05215790495276451], [0.00026219486608169973, -0.009990468621253967, -0.02663993649184704, -0.023810958489775658, -0.0333702489733696, -0.011228617280721664, -0.04930044710636139, 0.003757898462936282, 0.003701974870637059], [0.13446320593357086, 0.13485655188560486, 0.13187997043132782, 0.008004484698176384, 0.10931048542261124, 0.10761094093322754, 0.05226217582821846, -0.015040076337754726, -0.137311190366745], [0.052544526755809784, 0.03484344854950905, 0.04012753441929817, 0.030789367854595184, -0.013670176267623901, 0.0479273647069931, 0.027656590566039085, -0.020625436678528786, 0.06608009338378906], [-0.015943370759487152, 0.04167855903506279, -0.03342257812619209, 0.059692513197660446, 0.015102946199476719, -0.006546356715261936, -0.004924511071294546, 0.04923781752586365, -0.0023850169964134693], [0.028713427484035492, -0.03530358895659447, 0.05118613317608833, 0.020589495077729225, 0.0235179141163826, 0.02841338701546192, 0.08531971275806427, 0.03313694894313812, 0.03292059153318405], [0.07175827771425247, -0.03977997601032257, -0.0683051273226738, 0.013145764358341694, -0.049046702682971954, -0.023503292351961136, 0.0387575589120388, -0.053279612213373184, 0.04738025739789009], [-0.01661454327404499, 0.04058557748794556, 0.06888774782419205, 0.006938892416656017, -0.04331425577402115, 0.04461231455206871, -0.02004980854690075, -0.009568540379405022, 0.0595971904695034], [0.014791651628911495, -0.020892828702926636, -0.042629558593034744, 0.0660596638917923, 0.047370702028274536, -0.020535143092274666, 0.004629832226783037, 0.01410006359219551, 0.004366052802652121], [-0.2143963724374771, -0.2612394392490387, -0.283523827791214, -0.46716368198394775, -0.44028720259666443, -0.307946115732193, -0.41576945781707764, -0.4711981415748596, -0.6765814423561096], [-0.011038253083825111, 0.017047099769115448, -0.07651029527187347, -0.0452253557741642, 0.003228309564292431, 0.02585648000240326, 0.001768902293406427, 0.02324121817946434, 0.24772515892982483], [0.010521470569074154, 0.010493723675608635, -0.07053489983081818, 0.029720205813646317, 0.01740160956978798, -0.013992579653859138, 0.036608241498470306, -0.06077786162495613, -0.0200901348143816], [-0.10548622161149979, -0.043416980654001236, 0.001265782630071044, -0.07991831004619598, -0.006812611129134893, -0.07445595413446426, -0.06222061067819595, -0.14211221039295197, -0.2894277274608612], [-0.04003169760107994, -0.03529247269034386, -0.0045970347709953785, -0.011549332179129124, 0.008733152411878109, 0.015037952922284603, 0.05685098096728325, -0.03584456816315651, -0.22348202764987946], [0.060283999890089035, -0.020122935995459557, -0.010403603315353394, 0.028487255796790123, -0.029032349586486816, -0.02394828572869301, 0.011851872317492962, -0.03391674533486366, 0.013612164184451103], [0.012068331241607666, 0.0007799878367222846, 0.05318915471434593, 0.03988480567932129, 0.00013343284081202, -0.03577207028865814, 0.05474377050995827, 0.023779431357979774, 0.028134239837527275]], [[-0.07309938967227936, -0.0778084322810173, 0.030017025768756866, 0.013067182153463364, -0.014995836652815342, -0.012606222182512283, 0.0420413538813591, 0.0007732767844572663, -0.042363665997982025], [-0.23328733444213867, -0.08990423381328583, -0.23592820763587952, -0.05466494709253311, -0.06330948323011398, -0.030764831230044365, 0.11155426502227783, 0.03582479804754257, 0.369039922952652], [0.012363392859697342, 0.00021578984160441905, -0.06930025666952133, -0.06034122779965401, 0.019532816484570503, -0.05821578577160835, -0.0227754395455122, -0.06340193003416061, -0.058846406638622284], [0.05766211822628975, 0.013291404582560062, 0.029505345970392227, -0.03461271524429321, -0.019449763000011444, -0.029607826843857765, -0.008075855672359467, -0.0025202042888849974, 0.02252347022294998], [0.018864968791604042, 0.03220256790518761, 0.042294930666685104, 0.00975901447236538, -0.0025898499879986048, -0.043642330914735794, 0.03176881745457649, 0.027483925223350525, -0.1046314612030983], [-0.017013024538755417, -0.04313255473971367, -0.0033041273709386587, 0.02355331741273403, -0.00050901691429317, 0.03836280480027199, 0.018317580223083496, -0.009353415109217167, 0.0051641263999044895], [0.027633115649223328, 0.009311488829553127, -0.051706764847040176, -0.05947677791118622, -0.048798006027936935, -0.05844154953956604, -0.1051940992474556, -0.06839825958013535, -0.012984606437385082], [0.0460677295923233, 0.01346532255411148, 0.03319886326789856, 0.033317189663648605, -0.04833713173866272, -0.016012292355298996, 0.020866861566901207, 0.030260102823376656, 0.014759269542992115], [0.012577518820762634, 0.027961671352386475, 0.01676470972597599, -0.02321687713265419, -0.025034073740243912, 0.01664791628718376, 0.05149304121732712, -0.04148177057504654, 0.016652250662446022], [-0.10964632779359818, -0.09938854724168777, -0.08541485667228699, -0.08873990923166275, -0.04943620413541794, -0.06131238490343094, -0.005255667492747307, 0.07254108786582947, 0.19822293519973755], [-0.007422340102493763, 0.010384948924183846, -0.05703287571668625, 0.02383652701973915, -0.05594655126333237, -0.008257911540567875, -0.03590622916817665, 0.019898157566785812, 0.004823449067771435], [-0.03758213296532631, -0.04907457157969475, -0.02221643179655075, -0.014752984046936035, -0.016736246645450592, -0.021174464374780655, -0.04063596948981285, 0.05258467048406601, -0.028846874833106995], [-0.013358182273805141, -0.05714087933301926, -0.011820439249277115, -0.01842295564711094, 0.01696944609284401, 0.04546869546175003, 0.03728438913822174, 0.033665839582681656, -0.12857860326766968], [-0.0020031514577567577, 0.021615231409668922, 0.03696364536881447, -0.0014424948021769524, -0.012893714010715485, -0.006646085064858198, -0.05874739959836006, -0.010605499148368835, 0.026477519422769547], [0.11682449281215668, -0.052237991243600845, -0.023083796724677086, 0.07188552618026733, -0.017201948910951614, -0.06206319108605385, -0.004495123401284218, -0.10698654502630234, 0.07004090398550034], [0.0516437403857708, 0.03055756166577339, -0.034424781799316406, -0.0021583298221230507, 0.020234351977705956, -0.030031800270080566, -0.0071944878436625, 0.032482586801052094, 0.05673405900597572], [0.02414601296186447, 0.01593327522277832, 0.02790762484073639, 0.011404195800423622, 0.01762261800467968, 0.0031922589987516403, 0.024949152022600174, -0.026383796706795692, -0.010819603689014912], [-0.06263481825590134, -0.011359073221683502, -0.02876230515539646, -0.0657920315861702, 0.007779523730278015, -0.0692584365606308, -0.0030006447341293097, -0.028498824685811996, -0.0012719403021037579], [-0.19187965989112854, -0.07922063767910004, -0.09729570895433426, -0.15345105528831482, 0.08045076578855515, -0.04709586873650551, -0.007862688042223454, -0.004680500831454992, -0.20174485445022583], [0.05035528540611267, 0.027147281914949417, 0.04475494101643562, -0.05938057228922844, 0.029691947624087334, 0.03613750636577606, -0.030814513564109802, -0.03198365867137909, -0.056057367473840714], [0.0053082783706486225, 0.012241040356457233, -0.018312053754925728, 0.028688935562968254, -0.02418575808405876, -0.02102847397327423, -0.01977069489657879, 0.00872345082461834, -0.04628673568367958], [0.12075747549533844, 0.007079100236296654, -0.03797627612948418, 0.015095308423042297, 0.035710159689188004, -0.02585400827229023, -0.05361064523458481, -0.10367126017808914, 0.032629791647195816], [-0.05035004764795303, -0.05550478771328926, -0.047381673008203506, -0.05552675575017929, -0.05101994797587395, -0.03108043782413006, -0.05049603432416916, 0.037139829248189926, -0.06421839445829391], [0.007485270034521818, -0.05966709181666374, 0.032825443893671036, -0.036392856389284134, -0.011532931588590145, -0.06566473841667175, -0.009220140986144543, 0.010985851287841797, 0.05703108012676239], [0.0076102642342448235, -0.0657011941075325, 0.03679209202528, 0.02970919944345951, 0.025587499141693115, -0.00035229785135015845, -0.03008541837334633, -0.05967973917722702, -0.03471174091100693], [-0.16255731880664825, -0.1369100958108902, -0.1065732017159462, 0.006950597278773785, 0.04325265809893608, 0.051207855343818665, 0.08329380303621292, 0.002783822128549218, -0.7449821829795837], [-0.004930208437144756, -0.0019336938858032227, 0.044592633843421936, -0.020029079169034958, -0.01666663959622383, 0.033576156944036484, 0.005216991528868675, -0.03496737405657768, -0.06851088255643845], [0.04392530769109726, -0.026942038908600807, 0.052539754658937454, 0.06276071816682816, 0.06840015947818756, 0.017641576007008553, 0.020463066175580025, 0.07317820191383362, -0.028311917558312416], [0.015770338475704193, -0.07828974723815918, -0.0034843089524656534, -0.0807768777012825, -0.048130933195352554, -0.08465411514043808, -0.06149810552597046, -0.14224790036678314, -0.2259640097618103], [-0.07144962251186371, 0.008966407738626003, 0.02552739344537258, 0.007239099126309156, 0.01355504896491766, 0.011049828492105007, -0.019019566476345062, -0.007594462018460035, -0.05617976933717728], [-0.07372196763753891, 0.0221136212348938, 0.050500236451625824, 0.03473086282610893, 0.061697833240032196, 0.08367504179477692, 0.04698977619409561, 0.11422321945428848, -0.035129811614751816], [0.05231412500143051, -0.007619788404554129, -0.04375537857413292, -0.04759809747338295, -0.056314222514629364, -0.03454921022057533, 0.015290418639779091, 0.0001663361763348803, 0.035646192729473114]], [[0.009694407694041729, 0.010316506959497929, -0.05447937548160553, -0.05825179070234299, -0.053318243473768234, 0.010705215856432915, 0.04922683537006378, 0.03410126268863678, -0.004788266960531473], [0.06657610088586807, 0.08144046366214752, 0.08968763053417206, 0.031119784340262413, 0.040153928101062775, -0.00013089508865959942, -0.04269441217184067, 0.010955977253615856, -0.06873751431703568], [0.004737783223390579, -0.05142270773649216, 0.018572833389043808, -0.04446086287498474, -0.056963760405778885, -0.006612128112465143, -0.0129159614443779, -0.0369056761264801, 0.029852863401174545], [0.005549566354602575, -0.01948137953877449, 0.002386696869507432, -0.018798330798745155, -0.027366923168301582, -0.03816923499107361, -0.017113348469138145, -0.03411261364817619, 0.04961344227194786], [-0.013269278220832348, 0.035704489797353745, -0.05787235498428345, 0.009182007052004337, -0.019982483237981796, -0.04665423557162285, 0.02556721866130829, 0.033418841660022736, 0.014133846387267113], [0.0038623036816716194, -0.05288049951195717, 0.029769446700811386, -0.0516265369951725, -0.04164193198084831, 0.004403677303344011, 0.00891271885484457, 0.01797986589372158, 0.004898023791611195], [0.011950649321079254, 0.0372861847281456, -0.03469262644648552, 0.037461057305336, -0.07147695869207382, -0.043951746076345444, 0.016025768592953682, 0.00766573753207922, -0.024395493790507317], [-0.03448829799890518, -0.0009066357160918415, 0.020083488896489143, 0.02702459692955017, -0.02251862734556198, -0.0029100452084094286, -0.06008129566907883, -0.06025194749236107, 0.03614554926753044], [-0.04897557199001312, -0.004249671008437872, 0.05899488925933838, -0.029461253434419632, -0.04490432143211365, -0.03501913323998451, 0.00293551292270422, 0.04226459935307503, 0.030335919931530952], [-0.05175669118762016, 0.07228419184684753, 0.033861204981803894, 0.011572704650461674, -0.005560656078159809, -0.028569255024194717, -0.03315185755491257, -0.058891620486974716, -0.22729653120040894], [-0.013026854023337364, -0.011283249594271183, -0.011237065307796001, -0.0012506553903222084, -0.0504312627017498, 0.012234634719789028, -0.023680156096816063, 0.04572548344731331, 0.0331362709403038], [-0.04369284585118294, -0.025882486253976822, -0.053628109395504, 0.049787670373916626, -0.010987985879182816, 0.030680490657687187, -0.018964333459734917, 0.012663357891142368, 0.006417447701096535], [-0.02547168917953968, 0.015914374962449074, 0.05447833612561226, -0.054352566599845886, -0.03211979195475578, -0.033567000180482864, -0.028773479163646698, -0.04941730573773384, 0.060512982308864594], [-0.03220807760953903, -0.014160718768835068, 0.028534844517707825, 0.008329535834491253, -0.020221298560500145, 0.004664329811930656, 0.05023977905511856, -0.0338682197034359, -0.03290010988712311], [0.05334610864520073, -0.04025869444012642, -0.023907171562314034, 0.02701380103826523, 0.039405278861522675, -0.01703064516186714, -0.024853475391864777, 0.03207516670227051, -0.10006323456764221], [0.01650134287774563, -0.04082988575100899, 0.04543904960155487, 0.05484031140804291, 0.012028970755636692, 0.02056649886071682, 0.04081005975604057, 0.011608105152845383, -0.04516153782606125], [0.04105225205421448, 0.04762335866689682, -0.0029339406173676252, -0.04802476987242699, -0.049994539469480515, 0.003819306381046772, 0.000323615618981421, -0.025010891258716583, 0.00665152445435524], [-0.04323040321469307, -0.05819312110543251, -0.04125155508518219, -0.026532676070928574, -0.0013770133955404162, -0.010872209444642067, 0.04913530498743057, -0.056325480341911316, -0.009255246259272099], [0.04361186549067497, 0.03323151543736458, -0.005936413537710905, 0.059555534273386, -0.0723358690738678, -0.011643500067293644, -0.029263610020279884, 0.036871396005153656, 0.08561015874147415], [0.008778806775808334, -0.059838514775037766, 0.02597377821803093, -0.0015706643462181091, -0.0203211959451437, 0.03696483001112938, -0.042049113661050797, 0.015432109124958515, -0.018569935113191605], [-0.012738891877233982, -0.009309723973274231, -0.0005986297619529068, 0.011144551448523998, -0.015030662529170513, 0.05564751848578453, -0.03816370293498039, -0.04513109102845192, 0.0011294048745185137], [-0.035538360476493835, 0.01568078249692917, 0.04582294449210167, -0.042517341673374176, -0.017989182844758034, 0.04718273505568504, 0.057055436074733734, 0.08026926219463348, 0.008522857911884785], [-0.009171602316200733, -0.05439363047480583, 0.05086087808012962, 0.0391547717154026, -0.0022756638936698437, -0.03712652996182442, -0.05943873152136803, -0.00024200328334700316, 0.05166655406355858], [-0.04590802639722824, 0.018072308972477913, -0.007909712381660938, -0.012840093113481998, -0.02393794059753418, 0.026184970512986183, 0.029557857662439346, 0.017321735620498657, -0.03976825624704361], [-0.007341677322983742, 0.020907072350382805, -0.012058394029736519, -0.006646731402724981, -0.0565960668027401, -0.04472566023468971, 0.031748779118061066, 0.04062478616833687, -0.04098821431398392], [0.07080087065696716, 0.14834830164909363, 0.02467263489961624, 0.03965400904417038, -0.013435275293886662, -0.0305340476334095, -0.06479940563440323, -0.11444510519504547, 0.5157119631767273], [0.018236415460705757, -0.023440159857273102, 0.008972639217972755, -0.030209621414542198, 0.03563547879457474, -0.02649175561964512, 0.03613667190074921, -0.02163843624293804, 0.04012559354305267], [-0.03360335901379585, -0.05085266754031181, 0.0463353730738163, 0.06136927381157875, 0.023247281089425087, 0.05004974454641342, 0.031959209591150284, -0.035002660006284714, 0.06553879380226135], [0.026406180113554, 0.060133785009384155, 0.008614303544163704, -0.031816646456718445, 0.006438629236072302, 0.03880693018436432, 0.008731402456760406, 0.012825218960642815, 0.08186136186122894], [-0.0030937253031879663, -0.05560888722538948, -0.0005692176055163145, -0.05399882793426514, -0.034689296036958694, -0.052266642451286316, -0.04091973230242729, 0.057934362441301346, -0.031033163890242577], [-0.03914765268564224, -0.03267408907413483, -0.038807306438684464, 0.016706082969903946, -0.051105644553899765, -0.009887932799756527, 0.026840118691325188, 0.003425570437684655, 0.027530459687113762], [0.03282447159290314, -0.029392611235380173, -0.01939556375145912, -0.05137009918689728, 0.01298679132014513, 0.0006417713593691587, 0.022088540717959404, -0.0008810996660031378, -0.008044320158660412]], [[-0.02649661712348461, -0.0034683009143918753, 0.027252966538071632, 0.023330366238951683, 0.023796401917934418, 0.03747602924704552, -0.03140033036470413, 0.06631876528263092, 0.01301440130919218], [0.02490350604057312, -0.007953697815537453, 0.03914223238825798, 0.022784391418099403, -0.037660423666238785, -0.06998936086893082, 0.01269757654517889, 0.015143284574151039, 0.017780981957912445], [-0.04341193661093712, 0.030098747462034225, 0.026163315400481224, -0.02206777222454548, 0.001239334000274539, 0.039951372891664505, 0.0022568530403077602, -0.002146985149011016, -0.0343564972281456], [-0.0459546260535717, -0.01638246513903141, -0.050693660974502563, -0.05311087518930435, 0.04646335169672966, 0.04166458174586296, -0.0029716556891798973, 0.04272574186325073, -0.01993524469435215], [-0.03357870131731033, 0.05734516680240631, -0.024027904495596886, -0.001978474436327815, -0.020046060904860497, -0.031680554151535034, -0.03932126984000206, 0.04777754470705986, 0.009175200015306473], [0.019014107063412666, 0.04570070654153824, 0.020202338695526123, -0.0249332282692194, 0.048691749572753906, 0.014320733025670052, -0.014735204167664051, 0.02951386570930481, 0.04321577027440071], [0.037503257393836975, 0.0003989832475781441, 0.001714561483822763, -0.011369933374226093, -0.01772882044315338, -0.0054289656691253185, 0.038192108273506165, -0.05079495534300804, 0.033860042691230774], [-0.015680966898798943, 0.017594072967767715, 0.024944672361016273, -0.011364049278199673, -0.04622942581772804, 0.07404143363237381, 0.04176269844174385, -0.033649101853370667, -0.01435853261500597], [0.01750068925321102, -0.035802677273750305, -0.016364434733986855, 0.011048118583858013, -0.0033649224787950516, -0.007559254765510559, -0.05799785256385803, -0.05591368302702904, -0.050469186156988144], [0.025071032345294952, 0.060340896248817444, 0.020680394023656845, -0.06685725599527359, 0.012332317419350147, -0.05030301958322525, -0.019542163237929344, -0.025408340618014336, -0.2385125309228897], [0.024019476026296616, 0.00016330831567756832, -0.048119619488716125, 0.0441267304122448, 0.005611042026430368, 0.02593395672738552, 0.010266219265758991, -0.040220554918050766, 0.05778570473194122], [-0.00908606220036745, 0.007888155989348888, -0.021391749382019043, 0.05550907924771309, -0.0357692651450634, 0.04908323660492897, 0.05300024524331093, 0.0555083304643631, 0.044276315718889236], [0.013641399331390858, -0.0018161506159231067, 0.03559532016515732, -0.025229468941688538, -0.0038009125273674726, 0.05433939769864082, 0.03189470246434212, 0.0036067457403987646, 0.0384666733443737], [0.02462325058877468, 0.018794914707541466, 0.06414302438497543, -0.018284546211361885, 0.06609269231557846, 0.06488333642482758, 0.005178958643227816, -0.014658011496067047, 0.06352953612804413], [-0.005411924794316292, 0.06691618263721466, 0.04251280799508095, -0.008431078866124153, 0.03394423797726631, 0.07129842042922974, -0.026450220495462418, -0.023627163842320442, -0.044292304664850235], [0.03516388311982155, -0.041984159499406815, 0.04185809940099716, 0.030572809278964996, -0.04209011420607567, 0.021891983225941658, 0.019725678488612175, 0.03444337844848633, -0.0015546584036201239], [-0.04463065788149834, -0.019492559134960175, -0.03328067064285278, 0.0199723057448864, -0.02399769425392151, 0.040071066468954086, 0.0029776403680443764, -0.03369560465216637, -0.03264622017741203], [-0.019243713468313217, -0.015253791585564613, -0.008007576689124107, -0.042230453342199326, 0.06090665981173515, 0.0035910976585000753, 0.058530792593955994, -0.016164079308509827, -0.030418140813708305], [-0.028453616425395012, 0.03725913166999817, -0.07830256968736649, -0.022952212020754814, -0.09777363389730453, 0.0020579311531037092, 0.006158953998237848, -0.024324962869286537, 0.04956994578242302], [0.027242861688137054, -0.007020137272775173, 0.0167226605117321, 0.034179337322711945, -0.0037700473330914974, 0.009502959437668324, -0.04636431112885475, 0.05259616672992706, 0.030622227117419243], [0.031002793461084366, 0.06568552553653717, 0.0180196613073349, 0.04914850369095802, 0.025157535448670387, -0.034508783370256424, 0.027112388983368874, -0.006045926362276077, -0.037586819380521774], [-0.042344242334365845, 0.0491301529109478, -0.0420091450214386, 0.03427404910326004, -0.0055921911261975765, -0.035064343363046646, 0.06649446487426758, -0.020055852830410004, 0.03182880952954292], [-0.037408966571092606, 0.013184773735702038, 0.013946421444416046, 0.057202260941267014, 0.05054044350981712, -0.024568291381001472, 0.015730630606412888, -0.044807612895965576, 0.05189846083521843], [0.037179455161094666, 0.0640903115272522, 0.05485545098781586, 0.03096657246351242, -0.003597734495997429, 0.024950772523880005, 0.033422283828258514, -0.026962149888277054, -0.0037836835253983736], [-0.01957457885146141, -0.009250780567526817, 0.007765158545225859, -0.0020579600241035223, 0.055813319981098175, -0.03944160044193268, 0.004190519452095032, -0.036873579025268555, 0.02030157670378685], [0.10638163983821869, 0.07283632457256317, -0.04991110786795616, 0.004316728096455336, -0.07746252417564392, 0.0033809919841587543, -0.07199959456920624, -0.11495612561702728, 0.3396131098270416], [0.04601019248366356, -0.023848604410886765, -0.041689418256282806, -0.033446647226810455, 0.027161817997694016, -0.009717428125441074, -0.03384280204772949, 0.03255566582083702, -0.030012907460331917], [0.0362367257475853, -0.03425373509526253, -0.06219307705760002, -0.06671690195798874, -0.02731476165354252, -0.0035789646208286285, -0.03431139886379242, -0.009258412756025791, -0.0006684795953333378], [-0.07625153660774231, -0.055880580097436905, -0.043296732008457184, -0.04281457141041756, -0.07406879216432571, -0.013116294518113136, 0.036190927028656006, -0.024553921073675156, 0.15672141313552856], [0.012921156361699104, 0.03468684107065201, -0.002148305531591177, -0.03143056854605675, 0.05368688330054283, -0.0281720831990242, 0.012729832902550697, -0.04062990844249725, -0.022234678268432617], [0.03915274515748024, 0.037344928830862045, -0.06473542004823685, 0.017619559541344643, 0.0025448324158787727, -0.020234128460288048, -0.08042699843645096, 0.01719101518392563, -0.03399691358208656], [0.048931755125522614, 0.0303732231259346, -0.06769511848688126, -0.028321919962763786, 0.04361562430858612, 0.05103392153978348, -0.05796470120549202, -0.041402269154787064, 0.0015589493559673429]], [[0.032887052744627, 0.004918580409139395, 0.06170327961444855, 0.010027359239757061, -0.036531515419483185, 0.019080350175499916, -0.011982281692326069, 0.016184279695153236, 0.010789419524371624], [-0.018095480278134346, -0.03406346216797829, -0.05986376479268074, -0.08664137870073318, 0.008554156869649887, -0.022883865982294083, -0.039648957550525665, -0.029701320454478264, 0.04621842876076698], [-0.041832610964775085, 0.028117526322603226, -0.011503626592457294, 0.04573872685432434, 0.013833758421242237, -0.007620444521307945, -0.0006263742106966674, -0.019630933180451393, 0.029973221942782402], [-0.05162949487566948, -0.04001787304878235, 0.007499638479202986, 0.014545482583343983, 0.02487863041460514, -0.04448710009455681, 0.02603311836719513, -0.025371896103024483, -0.05392269045114517], [0.009389222599565983, -0.0171740110963583, 0.029388325288891792, 0.03075772151350975, 0.0006246884004212916, 0.01216456014662981, -0.004549486096948385, 0.05052195489406586, -0.0075878263451159], [-0.022597936913371086, 0.04127366840839386, 0.03626937046647072, 0.06728889048099518, 0.020825838670134544, 0.030832940712571144, 0.012525971978902817, 0.037192463874816895, 0.053835246711969376], [0.057641465216875076, 0.01180275809019804, -0.03506401553750038, 0.0713205486536026, -0.02856866456568241, 0.03320742025971413, 0.015285907313227654, -0.013447287492454052, -0.011863404884934425], [-0.004685985390096903, -0.003608466126024723, 0.03435641899704933, 0.03548417612910271, -0.014579725451767445, -0.024673452600836754, 0.039205629378557205, 0.06608925759792328, -0.004240651614964008], [-0.03240117430686951, -0.033244818449020386, 0.04106787592172623, -0.018599223345518112, -0.054702676832675934, 0.03634282946586609, 0.01642792671918869, -0.009813129901885986, 0.009874819777905941], [-0.017358846962451935, -0.046116460114717484, -0.02893804758787155, -0.021814703941345215, 0.04694726690649986, 0.052628085017204285, -0.08781170845031738, -0.029224948957562447, 0.10174936801195145], [0.0395660474896431, -0.018554119393229485, 0.04548514634370804, 0.06327106058597565, 0.05718626827001572, -0.003000702476128936, -0.009158505126833916, 0.03239408880472183, 0.002545960247516632], [0.04098431393504143, 0.051590461283922195, -0.018391793593764305, 0.06240446865558624, 0.050922129303216934, 0.037612978368997574, 0.04645702615380287, 0.048070333898067474, -0.016655737534165382], [0.04046265035867691, -0.0321272611618042, -0.0467056967318058, 0.0342714749276638, -0.043369363993406296, 0.07811074703931808, -0.00038769017555750906, 0.05716819688677788, 0.038475461304187775], [0.06718271225690842, -0.02465168759226799, -1.891396641440224e-05, 0.05132570117712021, -0.025407059118151665, -0.022943347692489624, 0.043951839208602905, 0.012011817656457424, -0.0042047519236803055], [0.06619039922952652, 0.056971948593854904, 0.027883479371666908, 0.04716647043824196, 0.06957744061946869, -0.05101783201098442, 0.03648917004466057, 0.046974558383226395, 0.09300819039344788], [0.0432731993496418, -0.006971727125346661, 0.015384255908429623, 0.003066392382606864, -0.058261845260858536, -0.05534683167934418, -0.018727099522948265, -0.022908823564648628, -0.051656439900398254], [-0.03668336570262909, -0.03371662646532059, 0.003525881562381983, 0.025477558374404907, -0.029346460476517677, 0.0024134053383022547, -0.0036881696432828903, 0.06555064022541046, 0.02282055653631687], [0.051058247685432434, 0.009356121532619, 0.06874189525842667, 0.014377365820109844, 0.0397881455719471, -0.0470222570002079, 0.053810808807611465, 0.06723520159721375, 0.04794637858867645], [-0.07459671050310135, -0.02589493617415428, -0.06230752542614937, -0.025292187929153442, -0.012350142002105713, 0.02845924347639084, -0.026016507297754288, -0.0008207818027585745, -0.08319851756095886], [0.05222447216510773, -0.03077775612473488, 0.05850299447774887, -0.0327235609292984, 0.05322102829813957, 0.034050893038511276, -0.00946736615151167, 0.01269647479057312, 0.027524448931217194], [0.04637441039085388, -0.04007094353437424, -0.03864428028464317, 0.020532555878162384, -0.022647785022854805, -0.03845773637294769, 0.06331554055213928, -0.006195555906742811, -0.041766200214624405], [0.02881891280412674, 0.03772316500544548, 0.030206620693206787, 0.019321369007229805, -0.02787521295249462, -0.07861948758363724, 0.012170600704848766, 0.004168487619608641, 0.07073355466127396], [0.05395044386386871, 0.026285139843821526, 0.008540893904864788, 0.048328299075365067, 0.06875642389059067, 0.03857755661010742, 0.03279681131243706, 0.004918665159493685, 0.062036264687776566], [-0.03831562399864197, 0.03305608034133911, -0.001224604551680386, -0.04181334376335144, 0.02604992873966694, -0.04800748452544212, -0.02973904274404049, 0.04320422559976578, 0.0008935365476645529], [0.0292822178453207, 0.0025906988885253668, -0.029628148302435875, 0.03784405440092087, -0.03961846977472305, 0.06751549243927002, 0.06228288263082504, 0.003510800888761878, -0.020353123545646667], [-0.2036835253238678, -0.12197226285934448, -0.013995645567774773, -0.012888980098068714, -0.010230222716927528, -0.05386503040790558, -0.09479329735040665, -0.04315465688705444, -0.3133988082408905], [-0.005682971328496933, -0.043659329414367676, 0.04963730275630951, 0.013049052096903324, -0.04733714088797569, -0.024341503158211708, -0.015474610961973667, 0.03498584404587746, 0.0321938693523407], [0.029540028423070908, -0.044244084507226944, -0.03235829994082451, -0.06864076852798462, 0.027867652475833893, 0.04703955352306366, -0.05337892472743988, -0.042865730822086334, 0.010246247053146362], [-0.03650879114866257, -0.010779988020658493, -0.006986031774431467, 0.03557050973176956, 0.05255945026874542, -0.027308082208037376, 0.07522739470005035, 0.06196356564760208, -0.10910437256097794], [0.00027042784495279193, 0.06730975210666656, 0.020243080332875252, -0.03660134598612785, 0.07108056545257568, 0.04747718945145607, 0.017487691715359688, 0.05016559362411499, -0.029371540993452072], [-0.03016817197203636, -0.04518879950046539, -0.0400833785533905, -0.021870186552405357, -0.004642620217055082, -0.010227628983557224, -0.00018733883916866034, 0.006074803415685892, -0.05020493268966675], [-0.01870299130678177, -0.07307478040456772, -0.05575453117489815, -0.06381003558635712, -0.026220468804240227, 0.017069097608327866, 0.03916037082672119, 0.0523439384996891, 0.029751045629382133]], [[-0.030868247151374817, 0.01666388288140297, 0.05409610643982887, 0.027960576117038727, 0.03709859028458595, 0.0648907721042633, 0.0333850271999836, 0.070698082447052, 0.030688798055052757], [-0.10461467504501343, 0.12991632521152496, -0.043448541313409805, -0.014529472216963768, -0.06177609786391258, -0.057315029203891754, 0.049447424709796906, -0.03472908213734627, -0.2542944550514221], [0.01384906005114317, -0.04692171514034271, -0.04410422965884209, -0.02918996289372444, 0.028445979580283165, 0.03632831573486328, -0.024509424343705177, 0.008173109963536263, 0.09252703934907913], [0.0413944348692894, -0.03423764556646347, 0.0547386035323143, -0.002433620858937502, -0.024351591244339943, -0.013247921131551266, -0.056036729365587234, -0.10097530484199524, -0.33143866062164307], [0.03787820786237717, -0.039000723510980606, 0.04398006200790405, 0.06182366982102394, 0.04254663735628128, 0.013442576862871647, 0.06148850917816162, 0.03703979030251503, 0.08600077778100967], [-0.04504484310746193, -0.03465109318494797, 0.05288337916135788, 0.030155137181282043, -0.04872342199087143, -0.01959032379090786, -0.05610000714659691, 0.0013447421370074153, 0.03562657907605171], [0.06289789825677872, 0.03473294526338577, 0.05299454927444458, -0.020641757175326347, 0.043213680386543274, -0.09501258283853531, -0.04497205838561058, -0.09929238259792328, -0.1259281486272812], [0.05890996754169464, -0.04327530041337013, 0.050956275314092636, -0.041344694793224335, -0.02304750308394432, -0.023792438209056854, -0.07512849569320679, -0.01775144785642624, -0.10336596518754959], [-0.040440697222948074, -0.006803354248404503, 0.0309563297778368, -0.049078114330768585, -0.05661429464817047, 0.00808041077107191, 0.02214048057794571, -0.008883207105100155, 0.03539548069238663], [-0.14729999005794525, -0.09517258405685425, -0.05010254681110382, -0.03855471312999725, -0.13774588704109192, -0.03348993882536888, -0.07400920987129211, 0.09031520038843155, 0.421359658241272], [0.03539508581161499, -0.005402725655585527, -0.016042878851294518, -0.025078946724534035, -0.041786327958106995, -0.0492461659014225, -0.028986716642975807, -0.039549876004457474, 0.04942554607987404], [-0.028749296441674232, 0.02295595593750477, 0.047983959317207336, 0.058099307119846344, -0.031005430966615677, 0.08730310201644897, 0.008577048778533936, 0.06914983689785004, 0.0998959168791771], [0.00031831004889681935, 0.03931466117501259, 0.020714839920401573, -0.04280567914247513, 0.04848053306341171, -0.02732013911008835, 0.04064265638589859, -0.018762584775686264, 0.10800477862358093], [0.014259416610002518, 0.0019717977847903967, 0.029466141015291214, 0.02604886330664158, 0.048089902848005295, 0.02618415094912052, 0.055557455867528915, 0.040728822350502014, -0.0010865629883483052], [0.09944756329059601, 0.026506900787353516, 0.014162430539727211, -0.023595694452524185, 0.022985102608799934, 0.024957261979579926, -0.053273387253284454, -0.07671630382537842, -0.4155324399471283], [-0.006094137206673622, -0.027392864227294922, 0.006664332468062639, 0.008611700497567654, 0.024436375126242638, -0.06604484468698502, -0.04368243366479874, -0.07569047808647156, -0.17968469858169556], [0.05849171057343483, -0.036224909126758575, 0.01992160640656948, -0.03066381812095642, 0.018490122631192207, 0.032233431935310364, 0.03445441275835037, 0.020662155002355576, -0.09688663482666016], [0.043044596910476685, 0.05345594137907028, -0.0024841222912073135, 0.023543698713183403, -0.044330306351184845, 0.03767421841621399, -0.013036868534982204, -0.02361994795501232, 0.041313719004392624], [0.030973756685853004, -0.019078169018030167, -0.026604698970913887, -0.041684139519929886, -0.0030774949118494987, -0.09860382974147797, -0.07136549055576324, -0.004010003060102463, -0.036759186536073685], [-0.024739861488342285, 0.05247684568166733, -0.050708744674921036, -0.05203063413500786, -0.026164067909121513, 0.0151614835485816, -0.052189309149980545, 0.060895856469869614, -0.05487509071826935], [0.05964016169309616, 0.009126543067395687, 0.023240026086568832, 0.03837316483259201, 0.042745206505060196, -0.0008943931316025555, -0.010366789065301418, -0.05699976906180382, -0.07332571595907211], [0.14286473393440247, 0.10164308547973633, 0.04554625600576401, -0.09981652349233627, -0.06942962855100632, -0.05639616400003433, -0.024300403892993927, -0.14915336668491364, -0.8721417188644409], [0.019995056092739105, 0.04870513454079628, -0.020499736070632935, -0.028140738606452942, 0.05039861798286438, 0.06296926736831665, -0.013414932414889336, 0.004283478017896414, 0.09309715032577515], [-0.01927000842988491, 0.049717944115400314, -0.008920545689761639, 0.005964841693639755, -0.043406348675489426, -0.06945128738880157, -0.026166826486587524, 0.029299871996045113, -0.08132045716047287], [-0.05681537091732025, -0.03712344914674759, 0.041709642857313156, 0.049956224858760834, -0.03518548235297203, 0.03813793510198593, 