{
    "in_shape": [
        null,
        32,
        1
    ],
    "layers": [
        {
            "type": "dense",
            "activation": "tanh",
            "shape": [
                null,
                32,
                8
            ],
            "weights": [
                [
                    [
                        0.07289713621139526,
                        0.5152134895324707,
                        -0.4673360586166382,
                        0.515880823135376,
                        -0.4615299105644226,
                        0.008865177631378174,
                        -0.06277787685394287,
                        -0.6616629362106323
                    ]
                ],
                [
                    0.0,
                    0.0,
                    0.0,
                    0.0,
                    0.0,
                    0.0,
                    0.0,
                    0.0
                ]
            ]
        },
        {
            "type": "dense",
            "activation": "tanh",
            "shape": [
                null,
                32,
                8
            ],
            "weights": [
                [
                    [
                        0.027563810348510742,
                        -0.08761096000671387,
                        -0.5070155262947083,
                        -0.48530399799346924,
                        -0.4338325262069702,
                        0.3074444532394409,
                        0.0855945348739624,
                        0.06302016973495483
                    ],
                    [
                        -0.0965995192527771,
                        0.4127083420753479,
                        0.552716076374054,
                        -0.6045203804969788,
                        0.3283342719078064,
                        -0.37879878282546997,
                        -0.061800479888916016,
                        0.13562148809432983
                    ],
                    [
                        -0.5332987904548645,
                        0.1968192458152771,
                        -0.5153121948242188,
                        -0.12509843707084656,
                        0.23457491397857666,
                        -0.05678153038024902,
                        0.3590768575668335,
                        0.40638262033462524
                    ],
                    [
                        0.22760355472564697,
                        0.0576404333114624,
                        -0.23351511359214783,
                        -0.28075212240219116,
                        0.5425068736076355,
                        0.17908817529678345,
                        0.0684778094291687,
                        0.5075951218605042
                    ],
                    [
                        0.17533081769943237,
                        -0.04869043827056885,
                        -0.01269388198852539,
                        -0.037979841232299805,
                        -0.12294667959213257,
                        -0.4953024387359619,
                        -0.040207624435424805,
                        0.3897612690925598
                    ],
                    [
                        -0.16207420825958252,
                        -0.2294764518737793,
                        0.5653819441795349,
                        -0.1583097279071808,
                        -0.2809596061706543,
                        0.5185242295265198,
                        -0.33772215247154236,
                        0.01598125696182251
                    ],
                    [
                        -0.27810221910476685,
                        -0.35048145055770874,
                        -0.1727217733860016,
                        0.2505313754081726,
                        -0.12175533175468445,
                        0.09350091218948364,
                        0.040319204330444336,
                        0.5883989930152893
                    ],
                    [
                        0.061307430267333984,
                        -0.21797257661819458,
                        -0.11013013124465942,
                        -0.4423404633998871,
                        -0.5409911274909973,
                        0.5092868208885193,
                        0.4905408024787903,
                        -0.0036995410919189453
                    ]
                ],
                [
                    0.0,
                    0.0,
                    0.0,
                    0.0,
                    0.0,
                    0.0,
                    0.0,
                    0.0
                ]
            ]
        },
        {
            "type": "unknown",
            "activation": "",
            "shape": [
                null,
                32,
                8
            ],
            "weights": []
        },
        {
            "type": "dense",
            "activation": "",
            "shape": [
                null,
                32,
                1
            ],
            "weights": [
                [
                    [
                        -0.09396934509277344
                    ],
                    [
                        0.10392212867736816
                    ],
                    [
                        -0.5725876092910767
                    ],
                    [
                        -0.16563963890075684
                    ],
                    [
                        -0.4801958203315735
                    ],
                    [
                        0.5992211103439331
                    ],
                    [
                        0.6337442398071289
                    ],
                    [
                        0.08326959609985352
                    ]
                ],
                [
                    0.0
                ]
            ]
        }
    ]
}